svm_type c_svc
kernel_type rbf
gamma 0.025641
nr_class 23
total_sv 2157
rho 0.551577 0.451693 0.475427 0.0203012 0.461027 0.305768 0.0663065 0.554566 0.158118 0.328221 -0.0800777 0.547033 0.374894 -0.0830846 0.376409 0.794251 0.403686 0.409022 0.439385 0.0260454 -0.180016 -0.00975476 -0.193144 -0.226015 -0.643858 0.155029 -0.107021 -0.311463 -0.0954403 -0.240855 -0.268651 -0.554335 0.0804093 -0.293441 -0.491008 -0.181994 0.489398 0.0562348 -0.369644 0.0115654 -0.494351 -0.819063 -0.504583 -0.108306 -0.495902 0.181042 0.0144644 -0.147432 0.0231612 -0.242983 -0.086815 -0.418291 0.129233 -0.0594878 -0.458447 -0.0665699 0.589106 0.14327 -0.231007 0.182942 -0.520203 -0.549295 -0.558151 -0.389282 0.253992 0.0655 -0.154865 -0.0286385 -0.0487347 -0.0884326 -0.473397 0.372819 -0.219922 -0.399563 0.110855 0.753472 0.165199 -0.158023 0.212887 -0.457254 -0.459995 -0.230464 0.469069 0.350587 0.0531829 0.45482 0.275166 0.536877 -0.0531733 0.580615 0.413711 -0.170765 0.431608 0.834989 0.390706 0.444907 0.539775 0.135943 -0.0972791 0.0711371 -0.223419 -0.397787 -0.227353 -0.270578 -0.312561 -0.453984 -0.0727482 -0.267456 -0.537614 -0.134223 0.359936 -0.0278567 -0.36298 -0.0739507 -0.498757 -0.464096 -0.396576 -0.178559 -0.0283449 -0.0487897 -0.109869 -0.306994 0.290766 -0.122584 -0.356998 0.0699771 0.566807 0.157678 -0.160853 0.246418 -0.339167 -0.321474 -0.251992 0.10133 0.0400431 0.0760681 -0.126559 0.369726 0.121158 -0.27318 0.307244 0.658171 0.362791 0.0262018 0.351871 -0.205731 -0.0844006 -0.0426589 -0.144793 -0.170374 -0.560349 0.175517 -0.126394 -0.571838 0.0490825 0.579736 0.154079 -0.258601 0.106332 -0.737177 -0.523345 -0.406643 0.0693583 -0.279256 0.206348 0.103305 -0.477379 0.123791 0.625098 0.24419 -0.00998985 0.286903 -0.360979 -0.355714 -0.279949 -0.370587 0.307095 -0.000474396 -0.509004 0.16575 0.663757 0.256427 -0.126255 0.194286 -0.399014 -0.348257 -0.356984 0.540664 0.306619 -0.0570196 0.363544 0.776162 0.427897 0.449117 0.44682 0.288376 -0.132249 -0.0220493 -0.385591 -0.484616 -0.100095 0.520089 -0.0323758 -0.441819 -0.121174 -0.518209 -0.714155 -0.494795 -0.381937 0.150283 0.690144 0.154984 0.0435904 0.246069 -0.345152 -0.364809 -0.250292 0.494866 0.765705 0.500778 0.362021 0.534004 0.00934025 0.0855353 0.219124 0.528224 0.124781 -0.238285 0.142122 -0.445214 -0.566028 -0.395118 -0.402422 -0.762066 -0.477735 -0.772156 -0.879813 -0.793431 -0.32633 -0.0402524 -0.468303 -0.376544 -0.371712 0.198102 -0.437365 -0.459551 -0.206498 -0.578085 -0.635014 -0.582876 -0.0796591 0.12779 0.223059
label 1 2 3 4 5 6 7 8 9 10 11 12 13 14 15 16 17 18 19 20 21 22 23
nr_sv 100 96 98 96 99 72 91 73 97 100 96 96 100 99 88 96 99 74 92 98 98 99 100
SV
0 0 0 0 0 0 0 1 0 1 0 0 0 0 0 0 0 0.9740690996280066 0 1 0 0 1:-4.3346 2:0.6699 3:0.2354 4:-0.0027 5:0.8049 6:0.2013 7:1.2237 8:0.8728 9:-0.5604 10:-0.043 11:-0.1753 12:0.2645 13:90.1581 14:-0.0011 15:-0.0121 16:0.0189 17:-0.0029 18:-0.0128 19:0.0005 20:-0.0007 21:-0.008 22:-0.011 23:0.0034 24:-0.004 25:-0.0005 26:-0.0304 27:-0.0363 28:0.0049 29:0.016 30:0.013 31:-0.0048 32:0.0065 33:0.0025 34:0.0014 35:-0.0036 36:0.0105 37:-0.0025 38:0.0009 39:-0.0468 
0 0 0.3872662804026855 0 0.2939125404631034 0.4373764180979422 0.2977324846784392 1 0 0.5434622495225551 0 0.15950741249478 1 0.7939189616691636 0 0.1539509280408404 0.1279667497035558 0.3504387459444691 1 0.789995786732567 0 0 1:-8.5301 2:1.1224 3:-1.4179 4:1.5742 5:1.51 6:1.5718 7:0.8954 8:1.5212 9:-0.2288 10:0.4114 11:0.0919 12:0.0654 13:87.8662 14:0.0071 15:0.0166 16:-0.0063 17:0.0077 18:-0.0032 19:0.0143 20:0.004 21:-0.0179 22:-0.0052 23:0.0073 24:0.0068 25:0.0021 26:-0.0237 27:0.0184 28:-0.0232 29:-0.0046 30:-0.0297 31:-0.0134 32:-0.013 33:-0.0231 34:-0.0025 35:-0.0073 36:0.0009 37:-0.0028 38:0.0013 39:-0.0848 
0.39093682352932 1 0 1 0.3146671001176635 1 0.7749518142220009 1 1 1 1 1 1 1 0.3880636250009208 0.529331591115596 0.1341548527957205 1 1 1 0.56584345292875 1 1:-12.0452 2:-0.6452 3:2.0372 4:-1.4336 5:0.2105 6:0.4257 7:-0.5533 8:1.0761 9:-0.1097 10:-0.1525 11:0.5751 12:-0.2807 13:87.851 14:-0.0111 15:0.0034 16:0.0132 17:0.0029 18:0.01 19:0.0064 20:0.0057 21:0.0037 22:0.0021 23:0.0074 24:-0.0013 25:0.0077 26:-0.0235 27:-0.0166 28:-0.004 29:-0.036 30:-0.004 31:-0.0185 32:-0.0218 33:-0.0044 34:-0.0023 35:0.0008 36:-0.019 37:-0.0045 38:-0.0038 39:-0.0562 
0 1 0 1 0 0 0 0 1 0.7349798514675651 1 0 1 0 0 0 0 0 0 1 1 1 1:-5.8279 2:-2.6844 3:-0.4379 4:-0.8815 5:-0.8064 6:-0.0087 7:-0.6106 8:-0.4586 9:-0.5769 10:-0.1485 11:-0.6621 12:-0.4341 13:87.6794 14:0.0219 15:0.0063 16:0.0128 17:0.0042 18:0.0069 19:0.0045 20:0.0096 21:-0.0025 22:0.004 23:-0.0007 24:0.0013 25:0.0045 26:-0.0595 27:0.0156 28:-0.0176 29:0.0121 30:-0.0104 31:-0.0115 32:-0.0137 33:-0.0011 34:-0.0033 35:-0.0052 36:-0.0107 37:-0.0056 38:0.0062 39:-0.0581 
0 0 1 1 0 0 0 0 0 0 0 0 1 0 0.3123274097082143 0 0 0 0 0 1 0 1:-1.2873 2:-0.4381 3:-1.697 4:0.8253 5:0.0867 6:-0.213 7:-0.6074 8:-0.0991 9:0.1923 10:-0.4303 11:-0.425 12:-0.4162 13:86.6232 14:-0.0233 15:-0.0059 16:0.0008 17:-0.0063 18:0.0018 19:-0.0065 20:-0.0024 21:-0.0041 22:0.0035 23:0.0009 24:-0.0068 25:-0.0048 26:-0.0091 27:-0.0262 28:0.0016 29:0.0019 30:0.0019 31:-0.0089 32:-0.0124 33:0.0061 34:-0.0035 35:-0.0005 36:0.0071 37:0.0057 38:0.0071 39:-0.0553 
0.8459169278487952 0 1 1 0 0 0 0 0 0.9480053111542167 1 0.7324446869602381 1 0 1 1 0 0.9536248011649424 0 1 1 0.2087561302894714 1:0.4352 2:-0.0897 3:1.2282 4:0.5628 5:0.0932 6:-0.453 7:-0.8484 8:1.2985 9:0.01 10:0.4904 11:0.0897 12:0.7705 13:85.9134 14:-0.0505 15:0.0014 16:-0.0041 17:-0.0061 18:-0.0037 19:0.0203 20:0.02 21:0.0127 22:0.0079 23:-0.0083 24:-0.0016 25:0.0079 26:0.024 27:-0.0307 28:0.0016 29:-0.0151 30:-0.0107 31:-0.0047 32:-0.0018 33:0.0022 34:-0.0121 35:-0.0103 36:-0.0129 37:-0.0086 38:-0.0129 39:-0.0626 
1 1 1 0.424656132267471 1 0.7496591470553327 0.619891483589873 1 1 1 1 1 0.9218273551989655 0.6554024240531123 1 1 1 1 1 1 1 1 1:-1.0466 2:-9.2772 3:-2.8479 4:-1.6774 5:-0.9233 6:0.3587 7:0.5139 8:1.7257 9:0.6107 10:-0.5228 11:0.2956 12:0.5283 13:88.5048 14:0.0269 15:0.0331 16:-0.0117 17:0.0135 18:-0.0137 19:-0.0006 20:0.0036 21:0.0024 22:0.0127 23:0.012 24:0.0047 25:0.003 26:-0.0179 27:-0.0429 28:-0.0059 29:0.0048 30:0.0226 31:-0.0084 32:-0.0145 33:0.0098 34:-0.0075 35:-0.0094 36:0.0028 37:0.0032 38:-0.0036 39:-0.0642 
0.5490643631883133 1 0 1 0 0.6938630463329081 0 1 1 0 0.1912724210493523 1 1 0.2119249821244298 0.1969254939054296 0 0 1 1 1 0.5449600629415891 0.484888059211235 1:-8.8426 2:-0.7835 3:-0.9034 4:1.7922 5:-1.0404 6:-0.5585 7:0.4597 8:0.2182 9:0.0339 10:0.0712 11:-0.3578 12:-0.1771 13:86.7055 14:-0.0271 15:0.0163 16:-0.0075 17:-0.007 18:-0.0126 19:-0.0062 20:0.0137 21:-0.0083 22:-0.0009 23:0.0081 24:0.0058 25:-0.0032 26:-0.03 27:-0.0065 28:-0.0284 29:0.0056 30:-0.0075 31:0.0006 32:0.0075 33:0.0044 34:0.0083 35:-0.003 36:-0.0044 37:-0.0004 38:-0.0069 39:-0.0344 
1 0 1 1 0 0 0 0 0 0.2492906037062233 0.06253051689505931 0.3420144522617786 1 0 0 0 0 1 0 0 1 0 1:-2.3959 2:0.6093 3:-0.044 4:-0.614 5:-2.01 6:0.3381 7:0.0267 8:0.8492 9:-0.1022 10:0.7511 11:-0.3106 12:-0.1664 13:86.5838 14:0.0081 15:0.0112 16:-0.0085 17:-0.0383 18:-0.0112 19:-0.0072 20:-0.0058 21:-0.003 22:-0.0035 23:0.0014 24:-0.0061 25:0.0072 26:-0.025 27:0.0728 28:-0.025 29:0.0197 30:-0.0289 31:-0.0002 32:-0.0167 33:-0.03 34:-0.0006 35:-0.0073 36:-0.0062 37:-0.0176 38:-0.0085 39:-0.0559 
1 1 1 1 0 0 0 0 0.3435849411657186 0 0 1 1 0 1 1 0.8886327813295192 0.9178302789276661 1 0.05566775355431445 1 0.8498602182200032 1:1.2873 2:-1.2869 3:-2.4316 4:-0.2153 5:-1.6362 6:-1.3843 7:-0.319 8:-1.0852 9:-0.1066 10:0.3127 11:-0.5533 12:-1.0837 13:85.1735 14:0.0184 15:-0.0119 16:-0.0095 17:0.0011 18:0.002 19:-0.0012 20:0.0015 21:-0.0127 22:-0.0071 23:-0.001 24:-0.0021 25:0.0077 26:-0.0119 27:0.0059 28:0.0065 29:0.012 30:-0.0223 31:-0.0008 32:-0.01 33:-0.0024 34:0.0008 35:0.0043 36:-0.0024 37:-0.0047 38:0.0083 39:-0.0473 
0.522219158146108 0 0.8833361473001018 1 0 0 0 0 0.1183174386621445 0 1 0 1 0 0.2428105863860712 0 0 1 0 0 1 1 1:-4.0569 2:-0.8727 3:-1.8022 4:-1.1915 5:-1.6509 6:-0.2763 7:-0.4463 8:0.0263 9:-0.3348 10:0.2699 11:0.1112 12:0.8905 13:87.0033 14:-0.0357 15:-0.0467 16:0.0098 17:0.023 18:-0.0038 19:-0.0172 20:0.0066 21:0.0084 22:-0.0007 23:0.0101 24:0.0058 25:-0.0038 26:-0.0257 27:0.0378 28:0.0056 29:0.0291 30:0.022 31:0.0196 32:0.0163 33:0.0487 34:0.0258 35:0.0022 36:0.0202 37:0.0081 38:-0.001 39:-0.0451 
0 0 0 0 0 0 0 1 0 0 1 0 0.3744910881394491 0 0 0 0 0 0 1 0 0 1:-9.5416 2:-1.9309 3:-0.6589 4:-0.1137 5:-1.0406 6:1.0194 7:0.07 8:1.4189 9:0.1386 10:0.0336 11:-0.1244 12:-0.0749 13:89.4416 14:0.0284 15:-0.0009 16:0.0038 17:0.0072 18:0.0081 19:-0.0104 20:-0.0137 21:0.0041 22:-0.0038 23:0.0039 24:0.0061 25:-0.0081 26:-0.0321 27:-0.0242 28:-0.0004 29:-0.0014 30:-0.0092 31:0.0161 32:-0.0146 33:-0.0198 34:-0.0084 35:0.0121 36:0.0049 37:-0.0018 38:-0.0028 39:-0.0507 
1 1 0 1 0 0 0 0 1 0 1 0.00437940395975223 1 0 1 0 0 1 0 0 1 1 1:-5.1092 2:-2.2797 3:-0.9477 4:-0.4436 5:-1.5806 6:-0.0824 7:-0.3037 8:0.6325 9:0.167 10:-0.664 11:-0.6579 12:-0.7654 13:86.9622 14:0.0107 15:-0.003 16:-0.0293 17:-0.0407 18:-0.0056 19:0.0043 20:-0.0047 21:-0.0029 22:-0.0077 23:-0.003 24:0.0033 25:-0.0007 26:-0.0262 27:-0.0206 28:-0.018 29:-0.0163 30:-0.0265 31:0.0064 32:0.0251 33:0.0144 34:-0.0062 35:-0.0006 36:0.0114 37:0.008 38:-0.0093 39:-0.0118 
0 0 0 0 0 0 0 0 0 1 1 0 0 0 0 0 0 0 0 1 0 1 1:-5.5559 2:-3.4165 3:-1.5699 4:-0.2163 5:-0.3721 6:0.7632 7:0.3266 8:0.6006 9:-0.0189 10:-0.0619 11:-0.168 12:-0.1373 13:89.7264 14:-0.0049 15:0.007 16:0.004 17:0.0064 18:0.0031 19:-0.0054 20:-0.0131 21:-0.0146 22:-0.002 23:0.0107 24:0.0076 25:-0.0026 26:-0.0328 27:-0.0084 28:-0.0077 29:-0.0094 30:0.0068 31:0.0036 32:0.0005 33:-0.0042 34:-0.0072 35:0.0068 36:0.0024 37:0.0022 38:0 39:-0.0627 
0.3238726854374651 0.4972385014865296 1 1 0 0 0 1 1 1 1 1 1 0 1 0 0 1 1 1 1 1 1:-4.7296 2:1.3491 3:0.0782 4:-0.7463 5:-0.3834 6:0.3697 7:0.0023 8:0.6113 9:0.0628 10:-0.0697 11:0.2742 12:0.1168 13:85.1764 14:0.0394 15:-0.0091 16:-0.0288 17:-0.007 18:0.0053 19:-0.0033 20:-0.0195 21:0.0064 22:0.0009 23:-0.0115 24:-0.0121 25:-0.0085 26:0.0001 27:0.0015 28:-0.0462 29:-0.0392 30:-0.0049 31:0.0081 32:0.0183 33:-0.0038 34:-0.0156 35:0.0079 36:-0.0123 37:-0.0054 38:-0.0043 39:-0.0416 
1 1 1 1 1 1 1 1 1 1 0.8482269970471445 1 1 0.7654272524714335 1 1 1 1 1 0.7400941663556176 1 1 1:5.1151 2:-3.6446 3:-3.3967 4:-1.5609 5:-1.6303 6:0.1447 7:-0.9762 8:-1.589 9:-0.3023 10:-0.8132 11:-0.5043 12:-0.7731 13:75.5861 14:0.0637 15:0.0347 16:0.0043 17:0.0085 18:0.0146 19:0.0062 20:-0.0023 21:-0.0005 22:0.003 23:0.0086 24:-0.0026 25:-0.0025 26:-0.0512 27:-0.0428 28:0.04 29:0.0017 30:0.0053 31:0.0034 32:-0.0108 33:-0.0163 34:-0.0008 35:0.0011 36:0.0141 37:0.0004 38:-0.0033 39:-0.0777 
0.270802226912983 0 0 1 0 0 0 1 1 0 1 0 1 0 0 0 0 1 0.0221871030523563 1 0.4178108067905797 0.4211680286873398 1:-9.959 2:-1.0524 3:-1.6832 4:-1.1885 5:-1.3102 6:-0.2031 7:-0.2672 8:0.1793 9:-0.4165 10:-0.1327 11:-0.2464 12:0.513 13:88.074 14:0.0001 15:-0.0104 16:-0.0045 17:0.0042 18:0.0031 19:0.0048 20:-0.0007 21:0.006 22:-0.0006 23:-0.0065 24:0.0013 25:0.0041 26:0.0105 27:0.0042 28:-0.011 29:0.0093 30:0.0182 31:0.0114 32:0.0002 33:-0.002 34:0.0065 35:-0.0021 36:-0.0108 37:0.002 38:-0.0048 39:-0.0733 
0 0.1291873278987861 0.1527444085224279 0.1315876274902131 0.46384014628899 0 0.08749770298204405 1 0.4504666078530518 1 0.02939107799967105 0 1 1 0.2645699312661471 0.4221963084386327 0.4375653091508201 1 0 1 0 0 1:-9.045 2:2.3979 3:0.3079 4:-0.326 5:0.5241 6:-1.0087 7:0.484 8:0.196 9:-0.0357 10:-0.0963 11:-0.4669 12:-0.0663 13:90.0101 14:0.0309 15:0.0135 16:-0.0062 17:-0.0023 18:-0.0024 19:-0.0059 20:0.0062 21:0.0124 22:-0.0055 23:-0.0137 24:-0.0045 25:0.0046 26:-0.0148 27:-0.0097 28:-0.0526 29:0.0026 30:0.002 31:-0.0029 32:0.0097 33:0.0011 34:-0.0031 35:-0.0011 36:-0.0006 37:0.0096 38:-0.0026 39:-0.0653 
0 0 0 0 0 0 0 1 0 1 1 0 0 1 0 0 0 0 0 1 0 0 1:-7.4407 2:-1.7057 3:-0.2606 4:-0.391 5:-0.0127 6:0.288 7:1.197 8:0.5188 9:0.126 10:-0.4587 11:-0.4315 12:-0.1579 13:90.1788 14:-0.0101 15:-0.0224 16:-0.0372 17:-0.0272 18:0.0026 19:0.0164 20:-0.0011 21:-0.0025 22:0.0076 23:0.0024 24:-0.0052 25:-0.0128 26:-0.0302 27:-0.0426 28:-0.0357 29:-0.0482 30:-0.0011 31:-0.0069 32:0.0059 33:-0.0127 34:-0.0055 35:0.0208 36:0.0127 37:0.0095 38:0.0058 39:-0.0247 
0 1 1 1 0.03671287526143045 0.06600189031824026 0 0.6890673117970739 0.3368826076522147 1 0.4942363128872824 0.830752959724702 0.0942721702497079 0.2302188275616332 0.8191579975679589 0.7429333797835438 0.5301370335153736 0 0 1 1 0 1:1.7854 2:-1.4717 3:1.4721 4:0.0338 5:-1.6256 6:0.0691 7:0.4627 8:0.1666 9:0.5534 10:1.2789 11:0.9463 12:0.2315 13:87.9564 14:-0.023 15:0.0109 16:-0.0154 17:0.0138 18:0.0229 19:0.0037 20:-0.0034 21:-0.0023 22:-0.0059 23:-0.0121 24:-0.0013 25:0.0015 26:-0.0418 27:-0.0645 28:-0.0071 29:-0.0052 30:0.0083 31:0.0257 32:0.0129 33:-0.0098 34:-0.0047 35:0.0065 36:0.0095 37:0.0041 38:0.0036 39:-0.0536 
0 0 0 1 0 0 0 1 1 1 1 0 1 1 0 0 0 0.7957687643003633 1 1 0.2062509615859722 1 1:-9.4826 2:-1.8441 3:0.5856 4:0.4328 5:-1.0533 6:0.0556 7:-0.6223 8:0.9246 9:-0.0598 10:-0.0176 11:0.0699 12:-0.0505 13:88.478 14:-0.0925 15:-0.0205 16:-0.0132 17:-0.0108 18:0.0206 19:0.0175 20:0.0095 21:0.0002 22:-0.0114 23:-0.0114 24:-0.0007 25:0.0068 26:-0.0243 27:-0.0808 28:-0.0117 29:-0.015 30:0.0086 31:0.0268 32:0.0143 33:0.0105 34:-0.006 35:-0.009 36:-0.0049 37:0.0077 38:0.012 39:-0.1098 
0.1362116037091334 0 1 1 0 0 0 0 0.1250874598353211 1 0 0 1 0 0 0 0 1 0 0 0 0 1:-5.2261 2:3.8067 3:0.2957 4:0.5988 5:-0.6836 6:0.1829 7:-0.0439 8:0.1687 9:-0.494 10:-0.3537 11:0.1184 12:-0.311 13:86.3989 14:0.0111 15:-0.0207 16:0.0237 17:0.0075 18:0.0125 19:-0.0014 20:0.01 21:-0.0003 22:0.0007 23:0.0029 24:0.0087 25:0.005 26:0.0074 27:0.0437 28:-0.0094 29:0.0134 30:0.0012 31:0.0182 32:-0.0046 33:-0.0032 34:-0.0106 35:-0.0092 36:0.0144 37:0.009 38:0.0058 39:-0.0046 
0 0 0.6992484337457652 0 0 0 0 0 0 1 0 0 0 0 0 0 0 0 0 0 0 0 1:-1.8822 2:-0.8393 3:-0.8654 4:1.223 5:-0.1027 6:1.2504 7:0.1487 8:1.2247 9:-0.4621 10:0.0392 11:0.4598 12:-0.737 13:88.3731 14:-0.0098 15:0.0473 16:0.0119 17:0.0148 18:0.0003 19:-0.0152 20:0.005 21:-0.0047 22:-0.0074 23:0.0043 24:0.003 25:0.005 26:-0.0384 27:0.009 28:-0.017 29:-0.0165 30:0.0002 31:0.01 32:-0.0055 33:0.0031 34:0.008 35:-0.0022 36:0.0057 37:0.0007 38:0.0002 39:-0.0701 
0 0 0 0 0 0 0 1 0.04905535104552267 1 1 0 1 1 0 0 0 0 0.02043103483075994 1 0 0 1:-10.7956 2:-0.7166 3:1.2601 4:1.3188 5:0.0372 6:0.384 7:-0.2474 8:0.5573 9:0.3726 10:0.1305 11:0.2702 12:-0.2177 13:89.2967 14:-0.0158 15:-0.0192 16:0.0235 17:-0.0102 18:-0.0104 19:-0.01 20:0.0084 21:0.0063 22:0.0021 23:0.0052 24:0.0018 25:-0.0042 26:-0.0352 27:0.0319 28:0.0112 29:-0.0127 30:-0.0246 31:0.0045 32:0.0252 33:-0.0134 34:-0.0082 35:0.0031 36:-0.0011 37:-0.0088 38:-0.0043 39:-0.055 
0 0 0 0 0 0 0 0 0 0 0 0 0 0 0 0 0 1 0 0 0 0 1:-3.1516 2:-0.7148 3:-1.8661 4:-0.5196 5:-0.9984 6:0.108 7:-0.2104 8:0.2929 9:-0.4679 10:0.044 11:0.1237 12:-0.0434 13:88.518 14:-0.0007 15:-0.0115 16:-0.0047 17:-0.0112 18:-0.0102 19:-0.0022 20:0.0033 21:-0.0017 22:-0.0087 23:0.004 24:-0.0057 25:-0.0017 26:-0.031 27:-0.0177 28:-0.0225 29:-0.0057 30:-0.0135 31:0.0091 32:0.0089 33:0.0053 34:-0.0142 35:-0.0058 36:-0.0078 37:0.0017 38:-0.0019 39:-0.0622 
0.390608215154532 0 0.7532227187726813 1 0 0 0 0.3775770563218608 1 0 1 0 1 0 0 0 0 1 1 0 0.3700468750509301 1 1:-4.2868 2:-0.7043 3:-0.7903 4:-0.1619 5:-0.7934 6:1.6478 7:0.6579 8:0.2872 9:-0.7388 10:-0.223 11:0.069 12:0.4734 13:86.5568 14:-0.0057 15:0.0127 16:0.0327 17:-0.0011 18:-0.024 19:-0.006 20:-0 21:0.0033 22:0.0085 23:-0.0054 24:0.0042 25:0.0012 26:-0.0288 27:-0.0018 28:-0.0198 29:0.0059 30:0.0006 31:0.0109 32:-0.0009 33:-0.0267 34:0.0104 35:0.0017 36:-0.009 37:0.0085 38:-0.0038 39:-0.0643 
0 0 0 0 0 0 0 1 0 1 1 0 0 0.4862121942029431 0 0 0.1760766270632304 0.5167498447085271 0 1 0 1 1:-6.5789 2:-1.1804 3:-0.3967 4:0.4937 5:-0.0032 6:1.3494 7:0.3969 8:0.7517 9:0.7355 10:0.7189 11:0.7645 12:0.226 13:90.7552 14:-0.0301 15:-0.0382 16:-0.0162 17:0.006 18:0.0108 19:0.0002 20:-0.0034 21:0.003 22:0.0102 23:-0.002 24:-0.0084 25:0.0002 26:-0.0154 27:0.0121 28:0.0016 29:0.0004 30:-0.0045 31:-0.0013 32:-0.0142 33:0.0083 34:-0.0044 35:-0.0044 36:-0.0032 37:-0.0031 38:0.0017 39:-0.0477 
0 0 0 1 0 0 0 1 0 1 0 0 0 1 0 0 0 0 0.6939268030822521 1 0 0.5372653181953366 1:-7.2098 2:-2.0011 3:-0.0038 4:1.4332 5:-0.4251 6:0.5599 7:0.5413 8:0.8593 9:0.5899 10:0.7023 11:0.0999 12:0.119 13:89.5518 14:-0.013 15:0.0168 16:-0.007 17:0.0073 18:0.0011 19:-0.009 20:-0.008 21:-0.004 22:0.0025 23:0.0111 24:0.0065 25:-0.0079 26:-0.0164 27:0.0181 28:-0.007 29:-0.0185 30:-0.0151 31:0.0045 32:0.0061 33:-0.0017 34:0.0042 35:0.0043 36:0.009 37:-0.0017 38:0.001 39:-0.0468 
0 0 0 0 0 0 0 0 0 0 0.02078284974293521 0 0 0 0 0.3772205188964111 0 0 0 0 1 0.9507060409887718 1:-4.1218 2:-4.0665 3:-2.771 4:0.2272 5:-0.1104 6:0.6541 7:-0.2255 8:0.5971 9:-0.3914 10:0.0211 11:-0.2415 12:-0.5105 13:88.3208 14:0.002 15:-0.0127 16:-0.0284 17:-0.0214 18:-0.0181 19:-0.0042 20:0.0047 21:0.0018 22:0.0014 23:-0.0099 24:-0.002 25:-0.0007 26:-0.0351 27:-0.0234 28:-0.0333 29:0.0311 30:0.0007 31:-0.025 32:-0.0157 33:0.0303 34:-0.0143 35:0.009 36:-0.0034 37:0.012 38:0.0031 39:-0.0522 
0 0 0 0.7395585854995124 0 0 0 0 0 0.2597548443440904 1 0 0 0 0 0 0 0 0 0 1 0 1:-4.3843 2:-2.3875 3:-0.8668 4:-0.1029 5:-1.0187 6:-0.3084 7:-0.1822 8:0.1648 9:-0.2684 10:-1.6343 11:-0.8277 12:-0.7747 13:90.2915 14:0.0017 15:0.0052 16:0.0008 17:0.0063 18:-0.002 19:-0.0093 20:-0.0022 21:-0.0021 22:0.0025 23:-0.0072 24:-0.0023 25:0.0002 26:-0.0283 27:-0.0048 28:-0.0174 29:0.005 30:0.0069 31:-0.0014 32:0.0028 33:-0.0014 34:-0.0092 35:-0.0047 36:-0.0012 37:-0.0011 38:0.0002 39:-0.0631 
0 0 1 1 0 0 0 0 1 0 0 0.03096193401857369 1 0 0 0 0 1 0 0 0.2440137600864637 0 1:-5.3393 2:0.1977 3:-1.7604 4:-0.2893 5:-0.6662 6:-0.5044 7:0.0371 8:-0.509 9:-0.8133 10:-0.8433 11:-1.198 12:-0.4366 13:86.317 14:-0.009 15:0.0347 16:0.0123 17:-0.0119 18:-0.0173 19:-0.0062 20:-0.0023 21:-0.0053 22:0.0002 23:-0.0021 24:-0.0057 25:-0.0044 26:-0.0239 27:-0.0374 28:-0.068 29:0.0227 30:0.0192 31:0.0099 32:-0.0053 33:0.0176 34:0.0214 35:0.0006 36:0.0134 37:-0.0061 38:-0.0028 39:-0.0298 
0 0 0 0.3497868006054374 0 0 0 1 0 1 0 0 0 0 0 0 0 0 0 1 0 0 1:-4.8173 2:-2.4947 3:-2.2626 4:-1.2177 5:-0.7295 6:-0.1424 7:0.5331 8:0.3045 9:-0.0144 10:-0.0205 11:0.3836 12:0.3072 13:89.9639 14:0.0057 15:-0.0003 16:-0.0076 17:0.0037 18:0.0019 19:0.0034 20:-0.0026 21:-0.0053 22:-0.0005 23:0.0032 24:0.0005 25:-0.0023 26:-0.0194 27:-0.0161 28:-0.0595 29:-0.0071 30:-0.0293 31:-0.0095 32:0.0082 33:-0.0077 34:-0.0086 35:0.0006 36:0.0142 37:0.0033 38:-0.0055 39:-0.0556 
1 1 1 1 1 1 0.5739084120987444 0.9362936203160841 1 0.7003339371329256 0.5080191906638581 1 1 0.557294738508835 1 1 1 1 1 1 1 1 1:6.8027 2:-5.9083 3:-0.4177 4:-1.2755 5:-1.3388 6:-0.0853 7:-1.5356 8:0.2264 9:-0.3807 10:-0.3913 11:-0.042 12:-0.3959 13:82.7586 14:-0.0151 15:-0.0195 16:0.0061 17:-0.0234 18:-0.0037 19:0.0018 20:-0.0084 21:-0.0018 22:0.0142 23:0.0013 24:-0.0014 25:-0.001 26:-0.0152 27:0.0202 28:0.0061 29:0.0203 30:0.0121 31:-0.0095 32:-0.0028 33:-0.0106 34:0.001 35:-0.0163 36:0.0108 37:0.0021 38:0.014 39:-0.1029 
1 0.9448121086324665 1 1 0 0 0 0.3463035532680426 1 0 1 0.4760541571741415 1 0 1 1 0 1 1 1 1 1 1:-0.1252 2:-1.2417 3:-1.0744 4:-0.5001 5:0.8132 6:1.2551 7:-0.1214 8:1.2071 9:0.2226 10:0.3646 11:-0.5608 12:-0.1091 13:85.0865 14:0.0063 15:0.0224 16:-0.006 17:-0.0051 18:-0.009 19:-0.0088 20:0.003 21:0.0043 22:0.008 23:-0.004 24:-0.0137 25:-0.0044 26:-0.0245 27:-0.0248 28:0.0069 29:-0.0011 30:0.005 31:-0.0165 32:-0.0245 33:0.009 34:0.0006 35:0.0012 36:-0.0047 37:0.0069 38:-0.0003 39:-0.0453 
0 1 0 0.9064934542819936 0.2308447502524994 0 0.0006116306741326205 0 0.6649801114605363 1 1 0.226773318095193 0 0 1 1 0.47999849613905 0 0.03715658529909965 1 1 1 1:-0.5345 2:-4.5427 3:-0.165 4:-0.9516 5:-0.5262 6:-0.6729 7:-0.4004 8:-0.0606 9:0.4649 10:0.1638 11:0.4605 12:0.4146 13:89.7186 14:0.0216 15:-0.0107 16:-0.0007 17:-0.0093 18:0.0094 19:0.0012 20:0.0206 21:0.0048 22:0.0009 23:-0.0052 24:-0.0019 25:-0.0009 26:-0.0333 27:-0.0339 28:0.0115 29:-0.0004 30:0.0001 31:-0.0088 32:-0.0055 33:-0.0091 34:0.0033 35:-0.0013 36:0.0055 37:-0.0004 38:-0.0045 39:-0.0719 
1 0 1 0.7407365037576659 0.5469328287353632 0.5567961533431509 0.5291507112417015 0.4026303423416878 0 1 1 0 0.6669493912607004 0 0 0 0.4649287331653388 1 0 1 0 0.2941899031193821 1:0.336 2:0.4988 3:-1.853 4:-0.3925 5:-1.2193 6:1.4577 7:-0.6439 8:-0.2184 9:0.3355 10:-0.15 11:-0.0812 12:0.1852 13:90.6035 14:0.0139 15:-0.0326 16:0.0151 17:0.0028 18:-0.0121 19:0.0101 20:0.0007 21:-0.0008 22:-0.0002 23:-0.0019 24:0.0069 25:0.0001 26:-0.0187 27:-0.0219 28:0.0233 29:0.0129 30:0.0188 31:0.0022 32:0.0128 33:-0.0088 34:-0.0115 35:-0.0078 36:0.0038 37:0.0178 38:-0.0013 39:-0.072 
1 1 1 1 0.7011879982932521 1 0.7940553924420102 1 1 1 0.8354594941878412 1 1 0.1988128360023958 1 1 1 0.8116768657128249 1 1 1 1 1:-2.5489 2:-5.5826 3:-1.7026 4:0.2706 5:-1.4233 6:-0.1713 7:0.0662 8:-0.3979 9:0.5183 10:0.0559 11:0.0742 12:0.0135 13:83.2586 14:0.0065 15:-0.0011 16:-0.005 17:-0.0182 18:-0.0331 19:-0.0188 20:-0.0068 21:-0.0048 22:0.0005 23:-0.0063 24:0 25:-0.0048 26:-0.0928 27:-0.0142 28:0.0432 29:0.0034 30:0.015 31:0.0012 32:0.0129 33:0.0038 34:0.0258 35:0.0096 36:0.007 37:-0.0057 38:-0.0063 39:-0.0108 
1 0 0 0.8493670288765801 0 0 0 1 1 1 1 0.8627014567984111 1 0 0.3137369921911724 0 0 0.8966329544803486 1 1 1 1 1:-7.4961 2:-3.8592 3:-1.6985 4:0.7161 5:0.6957 6:1.2442 7:-0.0159 8:0.3545 9:-0.2331 10:0.3733 11:-0.5851 12:-0.1261 13:88.0112 14:-0.0098 15:-0.009 16:-0.0257 17:0.0086 18:-0.0009 19:0.0066 20:-0.0014 21:-0.0041 22:-0.005 23:-0.0023 24:-0.0076 25:0.0023 26:-0.0298 27:0.0094 28:0.0028 29:-0.0007 30:0.0091 31:0.0003 32:-0.0001 33:-0.0062 34:-0.0058 35:-0.0031 36:-0.0063 37:0.0119 38:0.0054 39:-0.0656 
0 0 0 0.1839540156259344 0 0 0 1 0 0 1 0 0.3748763473852338 1 0 0 0 0 0 1 0 0 1:-10.956 2:-2.3064 3:-0.3901 4:-0.5908 5:-0.5196 6:0.679 7:0.5919 8:0.2712 9:-0.2493 10:0.2583 11:0.5167 12:0.1917 13:89.9552 14:-0.0159 15:-0.0107 16:0.005 17:0.0125 18:0.0063 19:0.0062 20:0.0007 21:-0.0139 22:-0.0056 23:-0.0049 24:-0.0032 25:-0.005 26:-0.0259 27:-0.002 28:-0.0049 29:0.0146 30:-0.0106 31:0.0005 32:0.0006 33:0.002 34:0.0078 35:0.0024 36:0.0074 37:0.0001 38:-0.0078 39:-0.0599 
1 0 0 1 0 0 0 0 1 0.5437579116217475 0.4017755449457862 0.4276845257015569 1 0 1 0 0 0 0 0 1 1 1:-4.7421 2:-2.9376 3:-1.7422 4:1.2185 5:-0.6577 6:0.0539 7:-0.7285 8:0.1017 9:-0.1921 10:-0.0893 11:-0.0503 12:-0.1225 13:87.1249 14:-0.0243 15:-0.0057 16:-0.0132 17:-0.0053 18:0.0149 19:0.0067 20:0.0163 21:0.0103 22:0.0054 23:-0.0076 24:-0.007 25:-0.0012 26:-0.0285 27:-0.0271 28:0.0283 29:0.0052 30:-0.0008 31:0.0055 32:0.007 33:0.0037 34:-0.0032 35:-0.0008 36:-0.001 37:0.0077 38:0.0032 39:-0.0417 
1 0.8513895029920527 1 1 0.1429953589136107 0.5082867903005147 0.4830179431263353 1 1 1 1 1 1 0.9421474462459961 0.681407835580956 0.8740430359314604 0.1659112602409825 1 1 1 0.3634906025099909 0.1212437895977762 1:-6.2392 2:2.9071 3:0.1538 4:1.1285 5:-1.3949 6:0.0632 7:-1.0149 8:-0.0756 9:-0.0938 10:-0.6143 11:0.183 12:0.077 13:84.7989 14:0.0273 15:-0.0004 16:0.0225 17:-0.0205 18:-0.005 19:-0.0098 20:-0.007 21:0.0142 22:-0.0023 23:-0.004 24:-0.0015 25:0.0013 26:0.0061 27:0.0152 28:0.0234 29:-0.0012 30:0.0228 31:-0.0284 32:-0.0055 33:0.0193 34:-0.0083 35:-0.005 36:0.0031 37:0.0116 38:-0.0059 39:-0.0729 
0 0 0.4650587028387753 0 0 0 0 0 0 1 0.2701093117068921 0 0 0 0 0 0 1 0 0.4959420785355693 0 0 1:-1.326 2:-0.105 3:-2.051 4:-0.3827 5:-1.4011 6:0.5272 7:-0.2776 8:1.0734 9:0.1205 10:-0.2861 11:0.2826 12:0.5573 13:90.7096 14:0.0072 15:0.0038 16:-0.0012 17:-0.0022 18:-0.0029 19:-0.0003 20:-0.0086 21:0.0076 22:0.0029 23:-0.0023 24:-0.012 25:-0.0116 26:-0.0374 27:-0.007 28:-0.0289 29:0.0022 30:-0.0158 31:0.0054 32:0.0049 33:-0.0093 34:0.004 35:-0.0017 36:-0.0021 37:-0.0013 38:0.0043 39:-0.0662 
1 0.8111639333691097 1 1 0.4018974397964214 0.2985170667229005 0.07275446174390129 0.2287122004180859 0 1 1 1 1 0.3853282290371218 1 1 0.3598155818532791 1 0.6722963280749403 0.1849822545035643 1 0.2287768654762974 1:-1.7666 2:3.5724 3:3.1596 4:-2.4814 5:-1.1023 6:0.0336 7:-0.4295 8:-0.4268 9:-1.4389 10:0.0945 11:-0.2659 12:0.2954 13:85.0053 14:-0.0015 15:-0.0093 16:-0.0227 17:0.0024 18:0.0043 19:-0.0058 20:-0.0075 21:0.004 22:0.0036 23:-0.0056 24:0.0088 25:-0.0007 26:-0.0474 27:-0.0169 28:-0.0139 29:-0.02 30:-0.0082 31:-0.0005 32:0.0071 33:0.0051 34:0.0071 35:-0.0067 36:0.0013 37:-0.0033 38:0.0008 39:-0.0633 
0 0.09569277985135405 0 1 0 0.001707495188382238 0 1 0 1 1 0 0.9556479091231523 1 0.851792134371835 0 0 0 1 1 0.1256124286087927 1 1:-5.5079 2:-1.6081 3:1.8553 4:-0.0201 5:-0.0421 6:1.0341 7:0.3165 8:0.3208 9:-0.2679 10:-0.2316 11:-0.1496 12:-0.349 13:89.2573 14:-0.0247 15:0.0416 16:-0.003 17:0.0238 18:-0.0038 19:0.0186 20:0.0024 21:0.006 22:0.0098 23:-0.0034 24:-0.0097 25:-0.0052 26:-0.0385 27:-0.0405 28:-0.0041 29:-0.0275 30:-0.0005 31:0.0057 32:0.0069 33:-0.015 34:-0.0118 35:0.0001 36:0.0069 37:-0.0043 38:-0.0003 39:-0.0527 
0 0 0.9369078409155769 1 0.006252201953558916 0.07543028159698509 0 0.1950558592069035 0.3854099055771564 1 1 0.637692616130028 1 0 0 0.002359951158654732 0 1 0.3473659843589713 0.6433081497564387 0 1 1:-4.7516 2:1.7641 3:2.047 4:-1.19 5:-0.6614 6:0.1381 7:-1.2298 8:2.0293 9:-1.5886 10:-0.2408 11:0.0197 12:0.5935 13:86.4771 14:-0.0068 15:0.0029 16:0.0144 17:-0.0244 18:-0.0107 19:0.0056 20:-0.0162 21:0.0028 22:0.0108 23:0.0072 24:-0.0205 25:-0.0123 26:-0.006 27:-0.0198 28:-0.0305 29:0.0334 30:-0.0399 31:-0.025 32:-0.0022 33:-0.0254 34:-0.0016 35:-0.0058 36:0.0089 37:-0.0102 38:0.0004 39:-0.0622 
0 0 0 1 0 0 0 1 0.06283097837538483 0 1 0 1 0 0 0 0 0 0 0.5455317712088236 0 0.44540067979409 1:-6.9276 2:-0.8858 3:-0.9226 4:-0.2266 5:-0.0256 6:0.9529 7:0.0315 8:0.8844 9:-0.2935 10:-0.0944 11:0.067 12:-0.6648 13:87.9079 14:0.0047 15:0.0252 16:-0.0102 17:0.0101 18:0.0118 19:0.0085 20:0.0081 21:0.007 22:-0.0088 23:-0.0077 24:-0.0008 25:-0.0003 26:-0.0502 27:-0.001 28:-0.0286 29:-0.0249 30:-0.0223 31:0.0085 32:0.015 33:-0.0025 34:0.0087 35:0.0042 36:0.0032 37:0.0099 38:-0.0105 39:-0.0673 
0 1 0.6046032061009704 1 0 0 0 0 0 0.5017379301598639 1 0 0.2619421394006664 0 0.2467952203707925 1 0 0 0 0.2364757134179991 1 1 1:-0.4432 2:-2.8493 3:-0.9553 4:-1.5523 5:-0.7054 6:-0.3367 7:-0.8173 8:-0.3188 9:-0.6398 10:-0.3394 11:-0.1065 12:-0.2221 13:88.5511 14:0.0303 15:0.0209 16:0.0322 17:0.0161 18:-0.0079 19:-0.0112 20:-0.0012 21:0.0015 22:0.0039 23:0.0058 24:0.0017 25:-0.0006 26:-0.0252 27:-0.0402 28:0.0137 29:-0.0019 30:-0.0015 31:0.0006 32:-0.017 33:0.003 34:0.0054 35:0.0004 36:-0.0117 37:-0.0037 38:0.0016 39:-0.0413 
0 0 0 0 0 0 0 0 0 0 0.7241258547033916 0 1 0 0 0 0 0 0 0 0 0 1:-5.1164 2:-1.4765 3:-2.3939 4:-0.9929 5:0.5885 6:0.3705 7:0.1933 8:0.232 9:-0.342 10:-0.4063 11:-0.6087 12:0.1222 13:88.3936 14:0.0385 15:-0.0084 16:-0.0066 17:-0.0039 18:0.008 19:0.0101 20:0.012 21:0.014 22:0.0103 23:0.0075 24:0.0057 25:-0.0031 26:-0.0206 27:-0.023 28:0.0153 29:0.0298 30:0.0108 31:-0.0149 32:-0.0198 33:0.0024 34:-0.0195 35:-0.0079 36:0.0078 37:0.0111 38:-0.0151 39:-0.0211 
0 0 0 0.9342934007121353 0 0 0 0 0 0 0 0 0 0 0 0 0 1 0 0 0 0 1:-4.7156 2:0.4769 3:-0.8077 4:-0.2686 5:0.0187 6:1.1047 7:0.0915 8:0.828 9:-0.3712 10:0.0612 11:-0.323 12:-0.5083 13:87.4723 14:0.0035 15:0.0044 16:0.0219 17:0.0086 18:0.0199 19:0.0036 20:-0.0044 21:-0.0139 22:-0.0018 23:0.0053 24:0.0133 25:0.0096 26:-0.0468 27:-0.0097 28:-0.0052 29:-0.0179 30:-0.0117 31:0.0015 32:-0.0026 33:0.0044 34:-0.0036 35:-0.0061 36:-0.0045 37:-0.0006 38:0.0036 39:-0.0704 
0 1 0 1 0 0 0 1 1 1 1 0.2570263628464458 1 0.8123884430155486 1 0.2281836024403687 0 0.3155989844667044 0.2358039452350518 1 1 1 1:-5.7194 2:-4.1764 3:-0.2041 4:-0.7816 5:-0.1702 6:0.3432 7:-0.1419 8:0.0027 9:-0.2432 10:0.0092 11:-0.1238 12:0.5628 13:88.9597 14:0.0016 15:-0.0134 16:0.0022 17:-0.0017 18:-0.0055 19:0.0247 20:0.0024 21:-0.01 22:0.0012 23:-0.0023 24:-0.0148 25:0.0066 26:-0.0252 27:-0.0229 28:0.0073 29:0.0289 30:-0.0117 31:-0.0025 32:0.0014 33:0.0102 34:0.0019 35:-0.005 36:-0.0099 37:-0.0118 38:0.0144 39:-0.0648 
1 0.7037948029248159 1 1 0.5339393211360512 0.5475125277919108 0.8037728522293143 0.5244420854674559 0.225735883872802 0.4743777709598354 1 1 1 0.3231183719345537 1 1 1 1 1 1 1 1 1:4.3769 2:0.7064 3:-1.3613 4:-2.3796 5:-1.3358 6:-0.4117 7:-2.0406 8:0.4379 9:-0.5077 10:-0.4238 11:-0.2759 12:0.1238 13:83.4246 14:0.0224 15:0.0301 16:0.0194 17:0.0102 18:0.0167 19:-0.0046 20:-0.0061 21:0.0013 22:0.0043 23:0.0032 24:-0.0037 25:-0.0028 26:-0.044 27:-0.0306 28:-0.0179 29:0.0002 30:-0.0028 31:-0.0115 32:0.0077 33:0.0053 34:0.0031 35:-0.0042 36:0.0094 37:0.005 38:0.0037 39:-0.0611 
1 0.4333741207547608 1 1 0 0 0 0.5056366249398475 0.8449243462220006 0.8283800792488677 0 1 1 0 1 1 0 1 0.7270272840669378 0 1 0.3016203205940327 1:-1.8958 2:0.4647 3:1.014 4:1.3139 5:0.653 6:-1.02 7:-1.1192 8:0.2634 9:0.7471 10:-0.1194 11:-0.9253 12:-0.0163 13:85.7831 14:-0.0295 15:-0.023 16:0.0052 17:0.0015 18:-0.0026 19:0.0128 20:-0.0021 21:-0.0015 22:-0.0031 23:-0.0031 24:0.0008 25:0.0038 26:-0.0238 27:-0.024 28:0.0142 29:-0.003 30:0.0043 31:-0.0054 32:-0.0098 33:-0.0058 34:0.0135 35:0.0109 36:0.0075 37:0.0044 38:0.0025 39:-0.0552 
1 1 0 1 0.1340574926755394 0.2702403213059769 0 1 1 1 1 1 1 1 1 0.514538012234897 0.8299588907671419 1 1 1 1 1 1:-8.6062 2:-6.0847 3:-1.2151 4:-3.0386 5:-2.4255 6:-1.0949 7:-0.1866 8:0.2817 9:-0.2338 10:-0.6372 11:-0.1403 12:-0.3578 13:86.5581 14:0.0151 15:0.003 16:-0.0032 17:0.0053 18:0.0072 19:0.0137 20:0.0149 21:0.004 22:0.0127 23:0.0098 24:0.01 25:-0.0028 26:-0.0428 27:0.0217 28:0.0066 29:0.0214 30:-0.0112 31:-0.0278 32:-0.0132 33:-0.0021 34:0.0027 35:0.0137 36:0.0184 37:0.0037 38:-0.0035 39:-0.0801 
0 0 0 0 0.06712298507615889 0 0 1 0 0.4520086524230362 1 0 1 0 0 0 0 0 0 0.94945579402793 0 0 1:-8.5595 2:-3.5371 3:-2.432 4:0.5409 5:-0.2898 6:0.2969 7:0.159 8:0.4822 9:-0.5821 10:0.8083 11:-0.0452 12:-0.1083 13:90.0003 14:0.0136 15:-0.0037 16:-0.0055 17:-0.0088 18:-0.0018 19:-0.0147 20:-0.0186 21:-0.0047 22:0.013 23:0.0162 24:-0.0083 25:-0.0169 26:-0.0415 27:0.0451 28:-0.0884 29:-0.0207 30:-0.0257 31:0.0021 32:-0.0042 33:-0.0006 34:-0.0035 35:-0.004 36:-0.0116 37:-0.0156 38:-0.0214 39:-0.0792 
0 0 1 0 0 0 0 1 0.5782330217322228 0 1 0 1 0 0 0 0 1 0.2293618318286654 0.07722604829890846 0 0 1:-7.1835 2:3.3116 3:-0.0189 4:0.588 5:-0.0215 6:1.3472 7:-1.4502 8:0.6082 9:-0.0007 10:-0.4056 11:-0.3829 12:-0.8635 13:87.6054 14:0.0242 15:0.0112 16:-0.0057 17:0.008 18:-0.0121 19:-0.0135 20:-0.0024 21:-0.0029 22:-0.009 23:-0.0005 24:-0.0005 25:-0.0009 26:-0.0237 27:0.0289 28:-0.0221 29:-0.0124 30:-0.008 31:-0.0186 32:-0.0021 33:-0.0121 34:0.0161 35:0.0117 36:-0.0151 37:-0.0136 38:0.0009 39:-0.0341 
0 0.03411484280863461 1 1 0 0 0 0 0 0 1 0.1608010246877384 1 0 0 1 0 0 0 1 1 0 1:0.8716 2:-0.4369 3:-0.1358 4:-1.2879 5:-1.8307 6:-0.9358 7:-0.2066 8:-0.4716 9:-0.7428 10:-0.7965 11:-0.8385 12:-0.4293 13:88.6689 14:0.0308 15:0.0106 16:-0.0063 17:0.0147 18:0.014 19:-0.0017 20:-0.0013 21:-0.0021 22:0.0004 23:0.0017 24:0.0112 25:0.0038 26:-0.0354 27:-0.0093 28:-0.0167 29:-0.0009 30:0.0037 31:0.0037 32:0.0178 33:0.0048 34:-0.0002 35:0.0124 36:0.0124 37:0.0033 38:-0.0046 39:-0.0616 
0 0 0 1 0 0 0 0 0 1 1 0 0 0 0 0 0 1 0 0 0 0 1:-2.48 2:1.2196 3:-0.5181 4:-1.2979 5:-0.6869 6:0.5672 7:-0.1513 8:0.0711 9:0.4014 10:0.4603 11:-0.3989 12:-0.6326 13:88.8383 14:-0.0094 15:-0.0122 16:-0.0081 17:0.0068 18:0.0074 19:0.0013 20:0.0113 21:-0.0021 22:0.0077 23:-0.0047 24:-0.004 25:-0.004 26:-0.025 27:0.0267 28:-0.0381 29:-0.0007 30:-0.0006 31:-0.0069 32:-0.0107 33:-0.0165 34:0.0049 35:0.0022 36:0.0139 37:0.0076 38:0.0095 39:-0.0633 
1 1 0.93335642808702 1 0.8090098318313462 0.6691103963849755 0.7188616156870616 1 1 1 1 1 1 0.3090213403535209 1 1 1 1 0.5339480560847046 0.7399681824882631 1 1 1:-7.3384 2:-7.7391 3:-2.9012 4:-2.59 5:-3.4213 6:-1.7326 7:-1.254 8:-0.6817 9:-0.5629 10:-0.6049 11:-0.6563 12:-0.5206 13:84.5333 14:0.0016 15:0.0022 16:-0.0181 17:0.0153 18:0.0161 19:0.0116 20:-0.0057 21:0.0082 22:0.0165 23:0.0018 24:0.0067 25:0.0087 26:-0.0062 27:0.0061 28:0.0209 29:0.0151 30:0.012 31:-0.0033 32:-0.0033 33:-0.0028 34:-0.0026 35:-0.0063 36:-0.0016 37:0.0144 38:-0.0008 39:-0.0556 
1 0.449166204842218 1 1 0.3147507687193367 1 0.9119308085673102 1 1 1 1 1 1 0.3530604939812979 1 1 0.3498300350090872 1 1 0.9114972052925329 1 0.4397399743606365 1:-1.422 2:4.6244 3:1.6054 4:-0.8035 5:-0.3691 6:0.7357 7:0.3535 8:0.0868 9:-0.8137 10:-0.3602 11:-0.8103 12:-0.4476 13:82.5312 14:-0.0097 15:0.0407 16:0.0071 17:0.0134 18:0.0264 19:0.0109 20:0.0138 21:0.0026 22:-0.0043 23:-0.0047 24:-0.0022 25:-0.0073 26:-0.0136 27:0.0671 28:-0.0242 29:0.0032 30:-0.03 31:-0.0246 32:-0.0423 33:-0.0106 34:0.0199 35:-0.0021 36:0.0281 37:-0.005 38:0.0124 39:0.0359 
0 0 0 0 0 0 0 1 0 0 1 0 1 1 0 0 0 0 0 1 0 0 1:-11.443 2:-2.5312 3:-1.5009 4:-0.4085 5:0.9464 6:0.7593 7:-0.0276 8:0.566 9:-0.165 10:0.0575 11:0.1856 12:-0.3342 13:90.1606 14:0.0156 15:-0.0178 16:-0.0366 17:-0.01 18:0.0091 19:0.0059 20:0.0069 21:-0.0038 22:-0.0027 23:-0.0085 24:-0.0041 25:-0.002 26:-0.0327 27:-0.0103 28:-0.0007 29:-0.0171 30:0.0027 31:0.005 32:0.0096 33:-0.0113 34:-0.0095 35:0.0019 36:-0.0063 37:0.0034 38:-0.0016 39:-0.0586 
0 0 0 0 0 0 0 1 0 0 0 0 0 0 0 0 0 0.3932001559933962 0 0 0 0 1:-8.0648 2:-1.131 3:-2.7683 4:-0.1159 5:-0.774 6:-0.0658 7:0.1904 8:1.1706 9:0.4467 10:-0.3494 11:-0.6593 12:-0.5125 13:89.0268 14:0.0348 15:0.0026 16:0.0045 17:0.0036 18:-0.0012 19:0.0106 20:-0.0051 21:-0.0044 22:-0.003 23:-0.0076 24:-0.0025 25:-0.0055 26:-0.0397 27:0.0045 28:0.0058 29:0.0237 30:0.0118 31:-0.0111 32:-0.0088 33:0.0029 34:0.0091 35:-0.0165 36:0.0048 37:-0.0001 38:-0.0006 39:-0.0456 
0 0 0 0 0 0 0 0 0 0 0.2418028265052024 0 0.2076236463276071 0 0 0 0 0 0 0 1 0.1285903092303921 1:-5.4192 2:-2.2022 3:-1.8559 4:0.2046 5:-0.0372 6:0.7528 7:-0.1951 8:0.3965 9:-0.1765 10:0.1974 11:0.0296 12:-0.3249 13:88.0342 14:0.0039 15:-0.0161 16:0.004 17:0.0034 18:-0.0207 19:-0.0162 20:0.0041 21:-0.0003 22:-0.0046 23:0.0012 24:0.0102 25:0.0072 26:-0.0281 27:-0.0166 28:0.0143 29:0.0012 30:0.0057 31:-0.0033 32:0.0064 33:-0.003 34:0.0009 35:0.0069 36:0.0031 37:-0.0013 38:-0.0046 39:-0.0124 
0 0 0.167175686761518 0 0.05192077149616955 0 0 1 0 0.5791483339730569 0.7700248577111143 0 0 0 0 0 0 1 0 0 0 0 1:-6.7653 2:2.5702 3:-0.125 4:0.6724 5:-0.4292 6:2.3767 7:-0.2368 8:1.8336 9:0.4608 10:0.2879 11:-0.9668 12:0.5202 13:87.8233 14:-0.008 15:0.0053 16:-0.021 17:-0.0117 18:-0.0141 19:0.0126 20:0.0086 21:0.0038 22:0.0084 23:0.004 24:0.0049 25:-0.0108 26:-0.0266 27:0.0032 28:0.0147 29:-0.0035 30:0.0193 31:0.0157 32:0.0008 33:0.0065 34:-0.0091 35:0.0046 36:-0.0131 37:-0.0007 38:0.0052 39:-0.0462 
0 0 0 0 0 0 0 0 0 1 0 0 0 0 0 0 0 0 0 0 0 0 1:-4.5288 2:-1.7677 3:-2.2365 4:-0.481 5:0.0469 6:-0.1721 7:-0.3632 8:0.201 9:0.113 10:0.3767 11:0.0963 12:-0.012 13:89.1578 14:-0.0118 15:0.0448 16:-0.0157 17:-0.0103 18:-0.0164 19:-0.0064 20:0.0145 21:-0.0044 22:0.0146 23:0.0017 24:0.0034 25:0.0047 26:-0.0287 27:0.0105 28:-0.0476 29:0.0032 30:0.0244 31:-0.0131 32:-0.0119 33:-0.0138 34:-0.0129 35:0.007 36:0.0199 37:0.0025 38:0.0041 39:-0.0647 
1 1 1 0.9597896264116021 0.7589064100058047 0.2991833310295661 0.1256075275821175 0.08923676847822801 0.8236828756817559 0 0.5710509600465515 1 1 0.07959328977880888 1 1 1 0.2258045051288853 0.9427093749406272 0.4369926628954421 1 0.7775250900915411 1:4.6755 2:-2.5897 3:-1.5014 4:0.7534 5:-1.6813 6:0.9327 7:0.1794 8:-1.062 9:-0.3066 10:0.581 11:-0.1173 12:0.8497 13:83.3273 14:0.0191 15:0.0018 16:0.035 17:-0.0065 18:0.0045 19:0.0079 20:0.0106 21:-0.0031 22:0.0046 23:0.008 24:0.0058 25:0.0044 26:-0.0168 27:-0.0542 28:0.0047 29:-0.0075 30:-0.0016 31:-0.0111 32:-0.0004 33:-0.0055 34:-0.0054 35:-0.0023 36:-0.0075 37:-0.0058 38:-0.0003 39:-0.0917 
0 0 0 1 0 0 0 0 0 0 0.6975686816431308 0 0 0 0 0 0 1 0 0.305419919441194 0 0 1:-6.4237 2:0.3077 3:-0.3887 4:0.3401 5:-0.6733 6:-0.6471 7:-0.7811 8:0.0629 9:-0.0151 10:-0.2475 11:-0.1548 12:-0.3554 13:89.0919 14:-0.0084 15:0.0132 16:-0.0153 17:0.0133 18:-0 19:-0.0014 20:-0.0136 21:0.0074 22:0.0059 23:-0.0094 24:-0.0005 25:0.0016 26:-0.0145 27:-0.0081 28:-0.0065 29:0.0257 30:0.0152 31:-0.0263 32:-0.0114 33:0.0096 34:0.0007 35:-0.0021 36:-0.0002 37:-0.0082 38:0.0059 39:-0.0725 
0 0 0 0 0 0 0 1 1 0.7132136939153385 1 0.08535108098826172 1 1 0 0 0 1 0.1082951553535371 1 0 0.3924999647516218 1:-11.9718 2:-0.994 3:-0.0193 4:0.6569 5:0.5488 6:0.707 7:0.0779 8:0.4066 9:0.4538 10:0.0503 11:0.1339 12:0.5354 13:88.5091 14:0.0256 15:-0.0195 16:-0.0108 17:-0.0007 18:0.0059 19:-0.0055 20:-0.0058 21:0.0107 22:0.0108 23:0.0044 24:-0.0015 25:0.0027 26:-0.0337 27:0.0459 28:-0.0476 29:-0.0151 30:0.0076 31:-0.0139 32:-0.0104 33:0.0013 34:0.0115 35:-0.0046 36:-0.0041 37:-0.0106 38:0.0041 39:-0.0472 
0 0 0.9555308672039667 0 0.08279155046415451 0 0 1 1 0 0 0.8419961150451094 1 0 0 0 0.06182523671091559 1 1 0.5995684288543761 0 0 1:-7.8804 2:2.9709 3:-1.572 4:-0.6319 5:-1.7148 6:-0.3832 7:0.056 8:0.1355 9:0.4323 10:-0.1521 11:-0.241 12:-0.1723 13:87.9409 14:0.0144 15:0.0136 16:-0.0139 17:-0.0294 18:-0.0071 19:-0.0038 20:0.0067 21:0.0089 22:0.0047 23:-0.017 24:-0.0061 25:-0.0039 26:-0.0387 27:-0.0204 28:-0.0264 29:-0.0253 30:-0.0118 31:0.011 32:-0.0024 33:-0.0015 34:0.0073 35:0.0058 36:0.0017 37:0.0062 38:0.0037 39:-0.0403 
0 0 0 1 0 0 0 0 0 1 1 0 0 0 0 0 0 0 0 0 0 0 1:-3.813 2:-0.8863 3:0.4886 4:0.2911 5:-0.4789 6:0.3861 7:0.8706 8:0.3508 9:-0.8929 10:-0.4438 11:-0.6004 12:0.0099 13:89.0121 14:0.0242 15:-0.06 16:0.0017 17:-0.032 18:-0.0197 19:0.0075 20:-0.0025 21:-0.0011 22:-0.0025 23:0.0012 24:0.005 25:0.0079 26:-0.0082 27:0.0207 28:-0.0108 29:-0.0422 30:0.0005 31:-0.008 32:-0.0067 33:-0.0002 34:-0.0085 35:0.0067 36:-0.018 37:-0.0041 38:-0.0014 39:-0.0492 
1 0 1 1 0 0 0 0.5622782719782591 0 1 1 0 1 0 0.3946740617796335 0.1487852944719169 0 0.2641736471277641 0 1 0.6342948558453909 0 1:0.4689 2:0.544 3:1.5245 4:0.7313 5:0.5774 6:0.3592 7:-1.1588 8:0.1286 9:-0.2107 10:-0.3905 11:0.2644 12:0.4565 13:87.9677 14:0.0092 15:-0 16:0.0151 17:-0.0192 18:-0.0175 19:-0.0032 20:0.0133 21:-0.0053 22:0.0032 23:0.0017 24:-0.0019 25:-0.0016 26:-0.0212 27:0.0007 28:0.0102 29:-0.0025 30:-0.0034 31:-0.0175 32:0.0039 33:0.0028 34:0.0025 35:0.0087 36:0.0042 37:-0.0043 38:-0.0002 39:-0.0292 
1 0 1 1 0.4040198917755245 0.09248089652489414 0.1495879051182409 0.09292491240352498 0 1 1 1 1 0 0 0.41553650466498 0.5119484999488214 1 0.4632985761118542 0 0 0 1:-2.4529 2:5.6637 3:-1.4898 4:0.184 5:-1.2813 6:1.6431 7:-1.0729 8:0.4226 9:0.1791 10:0.0905 11:-0.4425 12:0.5249 13:86.1868 14:-0.0254 15:0.0009 16:-0.0084 17:-0.0083 18:-0.0123 19:0.0135 20:-0.0215 21:0.0063 22:0.0187 23:-0.0026 24:-0.0081 25:-0.0007 26:-0.031 27:-0.0061 28:-0.0321 29:-0.0084 30:-0.0071 31:-0.0124 32:0.0087 33:-0.0199 34:0.011 35:0.0131 36:0.0201 37:-0.0147 38:-0.0034 39:-0.0468 
0 0 0 0 0 0 0 1 0 0 0 0 0 1 0 0 0 0 0 1 0 0 1:-10.5875 2:-0.8132 3:-1.2912 4:0.2783 5:0.213 6:0.8602 7:0.9379 8:1.2656 9:0.4755 10:0.4691 11:0.4878 12:-0.0625 13:89.6723 14:0.0216 15:-0.0177 16:-0.0186 17:-0.0166 18:-0.0089 19:0.0027 20:0.0036 21:0.0004 22:-0 23:0.0067 24:-0.0077 25:-0.0019 26:-0.0082 27:-0.0008 28:0.0166 29:-0.0093 30:-0.0253 31:-0.0241 32:-0.0155 33:-0.008 34:-0.0232 35:-0.0179 36:-0.0169 37:-0.0039 38:0.0042 39:-0.0342 
0.6315544527765528 0.4684315810658009 0.9697120273214531 0.686845290118324 0.793950981884296 0.4464275352364334 0.4263455624270296 1 1 1 0.9226744796581435 0.796349041345824 0.4371739948580761 1 0.7928417595964362 0.8793270200889688 0.8001091578280379 1 0.3062760418184598 1 0.06280127596349085 0.5197544034983547 1:-13.4917 2:-2.5433 3:0.5163 4:-0.6725 5:0.5761 6:1.7357 7:0.0856 8:1.5657 9:0.4013 10:-0.2204 11:0.3095 12:0.5202 13:89.8139 14:0.0022 15:0.0186 16:0.0275 17:0.0132 18:-0.0152 19:-0.0174 20:-0.008 21:-0.004 22:0.0088 23:0.0047 24:0.0009 25:-0.0061 26:-0.0074 27:0.003 28:0.0136 29:0.001 30:-0.0012 31:-0.0051 32:-0.0197 33:-0.0004 34:-0.0059 35:0.0044 36:0.0131 37:0.0013 38:-0.0178 39:-0.0377 
0 0 0 1 0.1636709246433874 0 0 1 0.02463098719404284 1 1 0 1 0.7281176462563935 0 0.2128411378538999 0.1021185925206132 0 0 1 0 0.3915783518699952 1:-8.1798 2:-2.5346 3:-0.9707 4:0.4841 5:0.2677 6:-0.2754 7:-0.3784 8:-0.768 9:0.3929 10:-0.6637 11:0.3413 12:0.7303 13:90.736 14:-0.0006 15:-0.0162 16:-0.0192 17:-0.0099 18:0.0124 19:-0.0081 20:0.0035 21:-0.0053 22:0.0026 23:-0.0026 24:0.0005 25:0.0042 26:-0.0012 27:-0.0085 28:0.0124 29:0.0129 30:0.0078 31:-0.0163 32:-0.0319 33:0.0015 34:-0.0074 35:-0.0082 36:0.0108 37:0.0222 38:0.0266 39:-0.0593 
0 0 0 1 0 0 0 0 0 1 1 0 0.3040081459198662 0.5802616845681838 0 0 0 1 0 1 0 1 1:-4.4268 2:-0.3491 3:1.006 4:-1.1417 5:-0.5637 6:0.5878 7:0.4362 8:0.7536 9:0.0232 10:0.6428 11:-0.2371 12:-0.1002 13:87.9324 14:0.0459 15:-0.0066 16:-0.0074 17:-0.0203 18:-0.0211 19:-0.0022 20:-0.0126 21:-0.0005 22:0.0042 23:-0.0045 24:-0.0015 25:-0.0021 26:-0.0208 27:0.0388 28:-0.0427 29:0.0034 30:-0.0093 31:0.0059 32:0.0051 33:-0.0013 34:-0.0013 35:-0.0074 36:-0.004 37:0.0113 38:-0.013 39:-0.057 
0 0 0 1 0 0 0 0.8495334013664121 0 1 0 0 1 0 0.5496358292050815 0 0 0 0.02563088849913351 1 1 1 1:-4.8515 2:-2.4074 3:-1.3163 4:-0.7308 5:0.0465 6:0.9319 7:0.2464 8:1.225 9:0.3554 10:0.7309 11:-0.0698 12:-0.6356 13:87.9964 14:0.0052 15:-0.0228 16:-0 17:-0.0285 18:-0.0092 19:0.0013 20:-0.0114 21:0.0014 22:-0.0066 23:0.0168 24:0.0093 25:-0.0076 26:-0.0439 27:0.014 28:-0.0394 29:-0.0288 30:-0.0384 31:-0.0063 32:0.008 33:-0.0225 34:-0.0047 35:-0.0053 36:0.0048 37:-0.0133 38:-0.0095 39:-0.0734 
0 1 0 1 0 0 0 1 1 1 1 0 1 1 0 0 0 0 0 1 0.3619839891272864 1 1:-10.9821 2:-3.3472 3:-0.0236 4:-0.6134 5:0.0019 6:0.0683 7:0.8734 8:0.5029 9:-0.1598 10:0.2119 11:-0.0499 12:-0.4293 13:89.3601 14:-0.0068 15:0.0025 16:-0.0155 17:0.0144 18:0.0108 19:-0.0067 20:0.0073 21:-0.0093 22:0.003 23:-0.0066 24:0.0029 25:-0.0048 26:-0.0215 27:-0.0281 28:0.0003 29:-0.0266 30:0.0028 31:0.0113 32:-0.0029 33:0.0145 34:0.0055 35:0.0056 36:0.0023 37:0.0052 38:-0.0065 39:-0.0553 
1 1 1 1 1 0.450442851931063 0 0.6062726419694048 1 0.3502168754203419 1 1 1 0 1 1 1 0.8708655043080452 1 1 1 1 1:-1.4911 2:-5.0038 3:-0.2068 4:-1.8293 5:-2.1511 6:-0.9329 7:-0.3821 8:-0.9073 9:0.2445 10:0.2032 11:-0.1121 12:-0.6558 13:84.5847 14:-0.019 15:-0.0066 16:-0.031 17:-0.0063 18:-0.0097 19:0.0006 20:-0.001 21:-0.0076 22:-0.0064 23:-0.0046 24:0.0019 25:-0.0073 26:-0.0401 27:-0.0074 28:-0.0149 29:0.016 30:0.0075 31:-0.006 32:0.0067 33:-0.0025 34:0.0071 35:-0.0057 36:0.0107 37:-0.0021 38:0.0084 39:-0.0669 
1 0 0.08853288823422757 1 0 0 0 0 0 1 1 0 0 0 0.4398020197518755 0 0 0.8970567641618007 0 1 0 0 1:-2.6076 2:0.2092 3:2.0548 4:1.6078 5:-0.924 6:-0.4967 7:-0.2911 8:-0.2403 9:-0.1438 10:0.3534 11:0.3009 12:0.0291 13:88.2924 14:0.0351 15:0.0111 16:-0.0407 17:-0.0062 18:-0.019 19:0.0182 20:-0.0025 21:-0.0134 22:-0.0171 23:0.0084 24:0.0106 25:0.0016 26:-0.0163 27:0.0182 28:-0.0307 29:-0.0032 30:-0.0138 31:-0.0175 32:-0.0119 33:-0.0099 34:0.0119 35:-0.009 36:0.0127 37:-0.0012 38:0.002 39:-0.0604 
1 0 0 0 0.1694768807875691 0 0 1 0.5632775330689238 0 0.1903417787646093 0 0.7931550665182902 1 0 0.1618558604229426 0.1433569718832755 1 0 0 0 0 1:-10.9068 2:-2.2858 3:-3.0281 4:-0.3492 5:-0.0436 6:1.5693 7:0.5846 8:0.7829 9:0.4751 10:0.1317 11:0.3084 12:0.118 13:89.2768 14:-0.0128 15:-0.0057 16:-0.0139 17:0.009 18:-0.0001 19:-0.0069 20:-0.0098 21:-0.0011 22:0.0063 23:-0.0079 24:0.0046 25:-0.0054 26:-0.0489 27:-0.0061 28:0.0113 29:-0.0051 30:-0.0136 31:-0.013 32:-0.0155 33:-0.0059 34:0.0126 35:0.0056 36:0.0054 37:0.0136 38:-0.004 39:-0.0279 
0 0 0 1 0 0 0 0 0 1 0 0 1 0 0 0 0 1 0 0 1 0 1:-2.956 2:-0.5902 3:-1.6681 4:-1.4041 5:-1.0261 6:-1.3502 7:-0.6669 8:0.3232 9:0.5945 10:0.3739 11:-0.5747 12:0.1487 13:88.2812 14:-0.0023 15:-0.0089 16:-0.0223 17:0.0181 18:0.01 19:0.031 20:0.0007 21:-0.0011 22:0.0076 23:0.0009 24:-0.0061 25:-0.0097 26:-0.0233 27:-0.0017 28:-0.0013 29:-0.0088 30:-0.0086 31:-0.0121 32:0.0004 33:-0.0003 34:-0.0058 35:-0.0192 36:-0.0019 37:-0.004 38:0.0051 39:-0.062 
0 0 0 1 0 0 0 0 0 1 1 0 0 0 0 0 0 0 0 1 0 1 1:-1.6577 2:-0.9247 3:0.8642 4:0.7028 5:-0.0698 6:0.6641 7:-0.2275 8:0.5536 9:-0.5267 10:-0.2906 11:-0.3103 12:-0.4124 13:88.0389 14:-0.0147 15:0.0023 16:-0.0188 17:-0.002 18:-0.0142 19:-0.0064 20:-0.0098 21:0.0021 22:-0.0031 23:0.0024 24:-0.0001 25:-0.0004 26:-0.0159 27:-0.0607 28:-0.0013 29:-0.0222 30:0.0197 31:-0.0119 32:-0.0132 33:0.0006 34:-0.0041 35:-0.0062 36:0.0046 37:-0.0042 38:0.0033 39:-0.0737 
0.1517114618373346 0 0 1 0 0 0 1 0.9330079790015465 1 0.07663188972949457 0 0.7592626027015518 0 0.09135486479060495 0 0.01758858906903336 1 1 1 0 0 1:-5.5775 2:0.6194 3:1.5043 4:1.7431 5:-1.3808 6:-0.0948 7:-0.0822 8:0.5968 9:0.7689 10:0.4914 11:0.2726 12:-0.1945 13:88.107 14:0.029 15:0.0013 16:-0.0159 17:0.0177 18:0.013 19:0.0015 20:-0.0019 21:0.0073 22:0.0047 23:-0.0044 24:-0.0038 25:0.0048 26:-0.017 27:0.0114 28:-0.0115 29:-0.0091 30:0.0168 31:-0.0123 32:-0.0009 33:0.0052 34:-0.0063 35:-0.0009 36:-0.0071 37:-0.0066 38:0.0105 39:-0.0459 
1 1 1 1 0.908982098804805 1 0.9262792727134349 0.9754988158452683 1 1 1 1 1 0.2304933019939206 1 1 1 1 1 1 1 1 1:1.3282 2:-0.1924 3:2.8062 4:0.4626 5:-0.835 6:0.0298 7:0.5549 8:0.9865 9:0.1381 10:1.3018 11:-0.0583 12:0.1318 13:82.6582 14:0.0012 15:-0.0148 16:-0.0063 17:-0.002 18:-0.0149 19:0.0146 20:0.0187 21:-0.0056 22:0.0049 23:-0.0121 24:0.0018 25:-0.0019 26:-0.0452 27:-0.0086 28:-0.0189 29:-0.0012 30:-0.0018 31:0.0072 32:-0.0051 33:-0.0044 34:-0.0041 35:-0.0126 36:-0.0097 37:0.0096 38:-0.0118 39:-0.0387 
0 0 0 0 0.01332454787294534 0.09233875001617116 0.1122398085711294 1 0 0.03672378683699365 0 0 0 1 0.01419324117674844 0.06510545733491328 0.04600109765333341 0 0 1 0 0 1:-11.9339 2:-2.3236 3:0.037 4:1.1008 5:1.1076 6:1.1066 7:1.1128 8:0.6644 9:0.0948 10:0.0612 11:0.1136 12:0.1889 13:90.4257 14:0.0037 15:-0.0144 16:0.0066 17:0.012 18:0.0054 19:-0.0013 20:0.0052 21:-0.0077 22:-0.0027 23:-0.0005 24:-0.0059 25:0.0028 26:-0.0166 27:0.0269 28:-0.0116 29:-0.0014 30:-0.0167 31:-0.0147 32:-0.0018 33:-0.0122 34:-0.0104 35:-0.0062 36:0.0047 37:-0.0018 38:-0.0011 39:-0.0329 
1 1 1 1 0.0009856759366941039 1 1 1 1 1 1 1 1 1 1 1 0.2418988028275557 1 1 1 1 1 1:-7.2123 2:-2.3534 3:-0.96 4:-0.2572 5:-0.2982 6:-0.06 7:0.1031 8:0.5666 9:1.0139 10:0.4047 11:-0.0481 12:-0.4012 13:84.05 14:0.0521 15:0.0031 16:-0.0033 17:-0.0092 18:0.0107 19:0.0165 20:0.0037 21:0.0031 22:-0.0111 23:0.0004 24:0.006 25:0 26:0.015 27:0.0081 28:-0.0092 29:0.0189 30:0.0068 31:-0.0032 32:-0.0192 33:-0.0068 34:-0.0014 35:0.0038 36:0.0069 37:0.0083 38:0.0112 39:-0.0571 
0.4245491020285007 1 0 1 0 0 0 0 0.6396546025053965 0 1 0 0 0 0 0.9540312534835989 1 0 0 0.2612988805175523 1 0.459199360143815 1:-1.3197 2:-3.4159 3:-0.5354 4:0.1158 5:-2.4195 6:0.0397 7:-0.0735 8:0.187 9:-0.5562 10:0.3052 11:-0.7584 12:-1.3093 13:87.6365 14:0.0274 15:0.0146 16:0 17:0.0188 18:-0.0077 19:0.0043 20:0.0111 21:-0.0182 22:-0.0036 23:0.0093 24:-0.0036 25:-0.0115 26:-0.0421 27:-0.0533 28:0.0207 29:-0.0113 30:-0.0044 31:-0.0086 32:-0.0075 33:0.0121 34:0.0025 35:0.0146 36:0.0091 37:-0.0032 38:0.0014 39:-0.0548 
1 1 1 1 0.685279025404296 0.4028772128391977 0.5634168607871274 1 0.84903914381949 0.06390112598925499 1 0.8565564628797093 1 0.3440673423462959 1 1 0.8068686774250043 1 1 0.168647333731767 1 1 1:-2.2203 2:-3.1264 3:-5.9265 4:-2.5849 5:-0.0901 6:-0.4688 7:-1.5399 8:-0.4807 9:-1.368 10:-1.3187 11:-1.6213 12:-0.6748 13:85.7102 14:-0.0012 15:-0.0098 16:-0.015 17:-0.0253 18:0.0075 19:0.0099 20:0.0009 21:-0.0037 22:0.0131 23:0.008 24:-0.0061 25:-0.0088 26:-0.0113 27:0.0412 28:0.0299 29:0.0007 30:-0.0112 31:-0.0143 32:0.0003 33:-0.003 34:-0.0202 35:0.002 36:0.0173 37:0.0105 38:0.0024 39:-0.0184 
1 1 1 1 0 0.298775395618497 0.1705266262045165 1 1 0.6106317541824521 1 1 1 0 1 0.4768188780182536 0.4513108294654797 1 1 0 1 1 1:-6.2498 2:-0.272 3:-0.7768 4:-0.4315 5:-1.3961 6:1.4982 7:-1.8998 8:1.3725 9:-0.3756 10:-0.6391 11:-0.4995 12:-0.6034 13:85.0039 14:0.0017 15:0.0483 16:-0.0071 17:0.0308 18:-0.009 19:-0.0044 20:0.0214 21:-0.0172 22:-0.0079 23:0.0079 24:0.0046 25:-0.0005 26:-0.0139 27:-0.033 28:0.0082 29:-0.0079 30:0.007 31:-0.0112 32:-0.0181 33:0.0084 34:-0.0047 35:0.0057 36:-0.0089 37:-0.0113 38:-0.0096 39:-0.0541 
0 0 0 0 0 0 0 0 0 1 0.2437831164993149 0 0 0 0 0 0 0 0 0.2324957632317746 0 0.4599739890987077 1:-2.4835 2:-1.5828 3:-0.2686 4:0.6737 5:-0.189 6:1.4661 7:0.6091 8:0.7411 9:0.2003 10:-0.4867 11:-0.5691 12:0.608 13:89.6069 14:0.0301 15:0.0141 16:-0.0121 17:0.0054 18:0.016 19:0.0056 20:-0.0103 21:0.0011 22:-0.0017 23:0.003 24:-0.0054 25:-0.0146 26:-0.0685 27:-0.0063 28:-0.038 29:-0.0368 30:-0.0285 31:0.013 32:-0.0129 33:-0.0165 34:0.0092 35:-0.0263 36:-0.0042 37:-0.0013 38:0.0022 39:-0.0667 
0.4888940067670016 0 0 1 0 0 0 0 0 0 1 0 0 0 0 0 0 1 0 0 0 0 1:-2.7221 2:1.1948 3:-0.423 4:0.4832 5:-1.6599 6:0.4465 7:-0.929 8:0.4764 9:-0.1159 10:-0.5449 11:-0.1988 12:-0.5131 13:88.7315 14:-0.0007 15:-0.0046 16:0.0033 17:0.0029 18:0.0055 19:-0.0072 20:-0.0044 21:0.0044 22:0.0043 23:-0.0031 24:-0.0029 25:-0.0041 26:-0.0427 27:-0.0159 28:0.0002 29:0.0102 30:-0.0178 31:0.002 32:0.0062 33:0.0094 34:0.0009 35:0.0013 36:0.0009 37:0.006 38:0.0014 39:-0.062 
0 0 0.1202048739387927 1 0 0 0 0 0 0.9146216865197561 1 0 0 0 0 0 0 1 0 0 0 0 1:-4.6689 2:2.2847 3:1.1253 4:0.9082 5:-0.0864 6:0.6192 7:-0.196 8:0.5077 9:-0.098 10:-0.2946 11:-0.5011 12:-0.6269 13:88.0225 14:-0.04 15:0.0246 16:0.0088 17:0.0048 18:0.0052 19:0.0008 20:0.0027 21:0.002 22:0.0038 23:-0.0012 24:0.0071 25:0.0026 26:-0.0322 27:-0.0831 28:0.0194 29:0.0016 30:-0.0062 31:-0.0008 32:-0.0128 33:0.0032 34:0.0094 35:-0.0066 36:0.0066 37:0.0113 38:0.0151 39:-0.0387 
0 0 0 1 0 0 0 0 0 1 1 0 0 0 0 0 0 1 0 0 0 0 1:-5.9592 2:1.1361 3:-0.2655 4:-0.6173 5:-0.4789 6:0.6744 7:0.0051 8:0.6284 9:-0.6398 10:0.3558 11:0.3386 12:-0.2636 13:88.3199 14:-0.0113 15:0.0358 16:0.0009 17:0.009 18:0.012 19:0.0002 20:0.0039 21:-0.003 22:0.0057 23:0.0002 24:-0.0066 25:0.0041 26:-0.0272 27:-0.0202 28:0.0076 29:-0.0115 30:-0.0041 31:0.0036 32:-0.0065 33:-0.0092 34:-0.0006 35:0.0096 36:0.0006 37:-0.0142 38:-0.0106 39:-0.0262 
1 0 1 1 0.2678242190956781 0.1394357045629417 0.1293128212404322 1 0.1362805141611709 0.5865021831215315 0 0.7445250352482005 1 0 0.4411801908098055 0.1440673675219026 0.07085110408198279 1 0.5886822923264722 0.05949145847421746 0.8165834060131224 0 1:-1.569 2:4.3672 3:-1.2676 4:2.2755 5:-0.4659 6:-0.5453 7:-1.5399 8:-0.0657 9:0.0098 10:0.4522 11:0.5459 12:0.003 13:86.6796 14:0.0001 15:-0.0019 16:0.0074 17:0.0029 18:0.0105 19:0.0163 20:0.0099 21:0.0091 22:0.0082 23:-0.0016 24:-0.0109 25:-0.0046 26:-0.0061 27:-0.0098 28:-0.0021 29:-0.0209 30:-0.0101 31:-0.0122 32:-0 33:-0.0036 34:0.0071 35:0.013 36:0.0018 37:0.0095 38:0.0012 39:-0.043 
0 0 0 1 0 0 0 0.8433098044352617 0 1 1 0 1 1 0 0 0 0 0 1 0.1169390427980815 1 1:-6.4445 2:-2.439 3:0.5827 4:-0.1147 5:-0.3646 6:-0.026 7:0.2396 8:0.9452 9:-0.3473 10:-0.0225 11:0.3345 12:-0.1274 13:89.863 14:-0.0148 15:0.0154 16:0.0045 17:-0.0041 18:0.0089 19:0.0068 20:0.0048 21:-0.0002 22:-0.0111 23:0.002 24:0.0133 25:0.0065 26:-0.0378 27:-0.0286 28:0.0126 29:-0.0098 30:-0.0039 31:0.0003 32:0.0118 33:0.0091 34:0.009 35:-0.0008 36:0.007 37:0.0045 38:-0.0078 39:-0.0411 
0 0 0 1 0 0 0 0 0 1 0 0 0 0 0 0 0 0 0 1 0 0 1:-5.9188 2:-1.1709 3:-0.2954 4:0.0851 5:-0.8204 6:-0.6777 7:0.2933 8:0.6851 9:-0.1053 10:0.1082 11:0.3614 12:-0.0185 13:89.6876 14:0.0059 15:-0.0117 16:-0.0091 17:-0.0208 18:-0.0044 19:0.0018 20:-0.0059 21:-0.0025 22:-0.0077 23:-0.0021 24:-0.0013 25:-0.0048 26:-0.0542 27:-0.0928 28:0.0417 29:-0.0353 30:-0.0055 31:0.0149 32:0.012 33:0.0124 34:0.0065 35:0.0047 36:-0.0039 37:-0.003 38:-0.0094 39:-0.0594 
0 0.589909425273324 0 0 0 0.2426001894143638 0.1760061490484234 1 1 0 0.6259926156368283 0.5636458904955369 1 1 0 0 0 1 0.8174882031168154 1 0 1 1:-12.1567 2:-2.1447 3:-1.1179 4:-0.1841 5:-0.2125 6:1.0948 7:1.3266 8:1.2714 9:0.3709 10:0.3137 11:-0.3079 12:-0.2828 13:88.289 14:-0.0097 15:0.0142 16:0.0163 17:0.0095 18:-0.0091 19:0.0082 20:0.0024 21:0.0166 22:0.0113 23:0.0136 24:0.0022 25:-0.0049 26:-0.0054 27:-0.0184 28:0.0641 29:0.0022 30:0.0188 31:-0.0054 32:0.0032 33:0.0009 34:0.0194 35:-0.0005 36:-0.0102 37:-0.0091 38:0.0052 39:-0.0533 
0 0 0 1 0 0 0 1 0.2005345730872731 0.2048436381093302 1 0 1 1 0 0 0 0 0 1 0 1 1:-8.4693 2:-1.6199 3:0.5002 4:0.7363 5:-0.3688 6:0.6552 7:0.0169 8:1.1432 9:-0.0856 10:0.1905 11:-0.2942 12:-0.31 13:88.5757 14:0.0159 15:0 16:-0.0097 17:-0.0022 18:0.0065 19:0.0039 20:-0.009 21:-0.0047 22:0.0059 23:0.0032 24:0.0042 25:-0.0066 26:-0.0271 27:-0.0129 28:-0.0481 29:-0.0276 30:-0.0282 31:0.0162 32:0.0082 33:0.0297 34:0.0141 35:0.0006 36:-0.0135 37:0.0136 38:0.0022 39:-0.0506 
0 0 0 0 0 0 0 1 0 0 1 0 1 1 0 0 0 0 0 1 0 0 1:-10.5759 2:-1.9939 3:-1.005 4:0.2015 5:0.6353 6:1.674 7:0.2745 8:0.4339 9:0.418 10:0.2951 11:0.1031 12:-0.2783 13:89.4517 14:-0.0076 15:-0.0201 16:-0.0021 17:-0.0056 18:-0.0081 19:0.016 20:-0.0012 21:-0.0008 22:-0.0007 23:-0.006 24:0.0024 25:-0.0032 26:-0.037 27:-0.0326 28:-0.0274 29:-0.0176 30:-0.0173 31:-0.0102 32:-0.0004 33:-0.0092 34:-0.0005 35:-0.0134 36:0.0016 37:-0.0064 38:0.0025 39:-0.0955 
0 0 0 1 0 0 0 0 0 1 0 0 0 0 0 0 0 0 0 1 0 0 1:-3.2692 2:-0.8256 3:-0.1301 4:-0.1198 5:-1.1393 6:0.3154 7:0.6829 8:0.822 9:-0.1729 10:0.3939 11:0.1084 12:-0.1047 13:89.6774 14:0.0383 15:-0.0255 16:-0.042 17:-0.0144 18:0.0117 19:0.0138 20:-0.0014 21:-0.0029 22:-0.0008 23:-0.0123 24:0.0002 25:0.0022 26:-0.0356 27:-0.0208 28:-0.0035 29:-0.0244 30:0.0038 31:0.0027 32:-0.0048 33:0.0086 34:0.008 35:0.0103 36:0.0096 37:0.0159 38:0.0002 39:-0.0428 
-0.6193011999619202 1 0 0 0.5550783661507679 0.1111324015459894 0.1081488566772009 0.3191650243026317 1 0.05480842146154059 1 0.8904235680008695 0.3048221083723216 0.09562114940142816 1 0.4491780893764666 1 0.9866910728306356 0.03762876118727165 0.5268430854879623 0.6213668546555773 1 1:-5.9498 2:-7.4368 3:-0.2358 4:-3.525 5:-2.1478 6:1.6989 7:-3.0813 8:0.8245 9:-0.479 10:-0.3925 11:-1.5344 12:-0.5994 13:84.6192 14:0.0491 15:0.0363 16:0.0281 17:0.0207 18:0.0027 19:0.0082 20:0.0066 21:0.0095 22:0.0009 23:0.0081 24:-0.0035 25:0.0028 26:-0.0307 27:0.0056 28:0.0383 29:-0.0058 30:0.002 31:-0.0004 32:0.0013 33:0.0119 34:0.0112 35:0.0084 36:0.0021 37:0.0006 38:0.0041 39:-0.0403 
-0 1 0.6966001759056052 0.9537129660907584 0 1 0.8718643826056124 0 1 0 0 1 0 0 1 0.5613665210187463 0 0 0.6064790285394185 0 1 1 1:-3.6451 2:-4.4834 3:-0.7114 4:-1.2838 5:-0.4639 6:0.5427 7:-2.423 8:0.5977 9:-1.2472 10:0.1668 11:-0.6427 12:1.084 13:80.6662 14:-0.0537 15:-0.0635 16:0.0063 17:0.0128 18:0.0065 19:-0.0044 20:0.0054 21:0.0029 22:-0.0004 23:0.001 24:0.0048 25:0.0041 26:-0.0124 27:-0.0151 28:-0.0296 29:-0.0255 30:-0.0075 31:-0.0338 32:-0.0005 33:0.0167 34:0.0152 35:0.0111 36:0.0076 37:0.0042 38:-0.0092 39:-0.0819 
-0 0 1 0.9276109242321825 0 0 0 0 0 0 0.8120508445570468 0 0.1571184544427969 0 0 0 0 1 0 0 0.1824953803390091 0 1:-2.7515 2:-0.3812 3:-0.6859 4:-2.8419 5:-3.2872 6:0.8387 7:-2.8374 8:-0.063 9:-1.5882 10:-0.1881 11:0.0758 12:-0.134 13:83.952 14:0.0193 15:-0.0327 16:-0.0173 17:-0.0219 18:-0.0195 19:-0.0005 20:-0.0096 21:-0.0084 22:-0.0044 23:-0.0109 24:-0.004 25:-0.0082 26:0.0321 27:-0.0731 28:-0.032 29:-0.0349 30:-0.0092 31:0 32:-0.003 33:0.0188 34:0.0155 35:0.0008 36:-0.0196 37:0.0077 38:-0.003 39:-0.0784 
-0.4356977921092435 0 1 1 0 0 0 0 0 0 0.5618376865883196 0 1 0 0.3940984578161986 0 0 1 0.6191093550197744 0 0.7494012739253504 1 1:-1.8197 2:-0.8809 3:-0.3556 4:-2.3407 5:-0.4294 6:0.2462 7:-2.0436 8:0.7093 9:-0.8635 10:-0.4629 11:-1.7399 12:0.2413 13:82.3969 14:0.0088 15:-0.0162 16:-0.0073 17:-0.0346 18:-0.0003 19:0.0088 20:-0.0291 21:0.0045 22:-0.0019 23:-0.0039 24:-0.0058 25:0.0088 26:0.0099 27:-0.0644 28:-0.0544 29:-0.0402 30:-0 31:-0.0095 32:-0.0026 33:-0.0193 34:-0.0121 35:0.0051 36:0.0002 37:-0.002 38:0.0026 39:-0.0863 
-0.1372227433860853 0.6445458095398344 0.3061552985551758 0.007585930545763144 0.4166873305369185 1 1 0.6116380022678128 1 0.8738983834307733 0.1073853878358822 0.7701300912106296 0.4734765027581061 0.4171819656171618 0 0.8830605062697002 0.3828933748119915 0.2168892564492724 1 0.1465201081003401 0.07473976880213722 0.2840423190515662 1:-8.9691 2:-4.69 3:0.9761 4:2.1809 5:-3.887 6:-1.4566 7:-0.0711 8:-1.1653 9:-0.1736 10:-1.4155 11:0.308 12:0.0311 13:74.6312 14:0.0002 15:0.029 16:0.0261 17:0.0008 18:0.0004 19:-0.0037 20:0.0017 21:-0.0061 22:0.0043 23:-0.0033 24:-0.0085 25:-0.0064 26:-0.031 27:0.0015 28:0.0193 29:0.0033 30:0.0033 31:-0.0074 32:-0.0236 33:-0.0183 34:-0.0041 35:0.0151 36:0.0064 37:0.0062 38:0.0108 39:-0.0465 
-0 0.7590817009981422 0 0 0.8421595249643118 0.2710892356237458 0.02990530212830625 0 0 0 0.6643806554124458 0 0 0 1 0.4332402188157582 1 0 0.2151333529781709 0 0 0.6467551308219818 1:-0.1309 2:-4.0708 3:-0.148 4:-1.4433 5:-0.3362 6:3.7721 7:-2.6405 8:1.653 9:0.9895 10:-0.6419 11:-0.5651 12:-0.1087 13:83.4069 14:0.017 15:0.0155 16:0.0153 17:0.003 18:0.0021 19:-0.0125 20:-0.0139 21:-0.0017 22:0.008 23:0.0014 24:-0.0095 25:-0.0064 26:-0.0365 27:-0.0167 28:-0.0012 29:-0.0197 30:0.0039 31:0.0094 32:0.0025 33:-0.003 34:-0.0147 35:0.0005 36:0.0057 37:-0.0031 38:-0.0012 39:-0.053 
-0 0 0 0 0 0 0 0 0 0 0.6217658812957845 0 0 0 0 0 0 0 0 0 0 0 1:-2.1479 2:-0.2399 3:0.3354 4:-1.8165 5:-1.3188 6:2.6252 7:-1.9772 8:0.0071 9:-1.3147 10:-0.6186 11:-0.405 12:-0.0066 13:81.3145 14:-0.0145 15:0.0232 16:-0.0242 17:0.0094 18:0.0089 19:0.0037 20:0.0136 21:0.003 22:-0.0014 23:0.0023 24:0.004 25:0.0021 26:-0.0516 27:-0.0479 28:-0.0127 29:-0.0184 30:-0.0028 31:-0.001 32:-0.0067 33:-0.0001 34:-0.0005 35:0.0064 36:-0.0068 37:-0.018 38:0.0113 39:-0.0423 
-0 0.2420081321457891 1 0.2292621929781076 0 1 1 0.2271563019014155 1 1 0.1488038472747431 0.804119807737139 1 0.1894450157047637 1 0.9407118600832467 0 0 1 0.005113784329117041 1 0.9973667088198573 1:-3.1787 2:-0.1278 3:1.2031 4:1.3852 5:0.0065 6:-0.2082 7:-0.3635 8:-0.009 9:0.1791 10:-0.6662 11:-0.5756 12:-0.3363 13:74.7111 14:0.0136 15:-0.0088 16:-0.0264 17:-0.0129 18:0.0005 19:0.009 20:0.0069 21:0.006 22:-0.0004 23:-0.001 24:-0.0054 25:-0.0039 26:0.0214 27:0.0148 28:0.0163 29:-0.03 30:-0.0177 31:0.0101 32:0.0146 33:0.0058 34:0.0042 35:-0.0113 36:0.0183 37:0.0026 38:0.0036 39:-0.03 
-0 1 0 1 0 1 1 1 1 0.6387282344656109 0.51010237609803 1 1 0.834286520379536 1 0 0 1 1 0.00962366330380228 1 1 1:-7.5487 2:-2.6182 3:0.0186 4:-0.8077 5:-0.8776 6:0.9527 7:-2.3792 8:0.2304 9:-0.1645 10:-0.4956 11:-0.0411 12:-0.3929 13:81.5469 14:0.0084 15:-0.025 16:-0.0325 17:-0.0156 18:0.0159 19:0.0115 20:0.0025 21:-0.0068 22:0.0005 23:0 24:0.0056 25:0.0144 26:0.0019 27:0.0077 28:-0.0383 29:0.028 30:-0.0318 31:0.005 32:0.0165 33:0.0073 34:0.0014 35:-0.0218 36:0.0024 37:0.0208 38:-0.0057 39:-0.0525 
-0 0 1 0 0 0 0 0 0 1 0 0.8540417695950322 0.2040325745703772 0 0 0.1646342739295104 0 0.0007049401161271606 0.5081276786074389 0 0 0 1:-1.5559 2:4.8027 3:0.9362 4:2.7609 5:-1.6271 6:0.9458 7:-0.4841 8:0.5798 9:0.4145 10:0.514 11:-0.0441 12:-0.433 13:82.7132 14:0.0051 15:0.0031 16:-0.012 17:-0.0014 18:0.0128 19:0.0046 20:-0.0112 21:-0.0227 22:0.0103 23:0.0154 24:-0.0029 25:0.0062 26:-0.022 27:-0.0313 28:0.0065 29:0.0457 30:0.0027 31:-0.0157 32:-0.0324 33:-0.0073 34:-0.0114 35:-0.0068 36:-0.0061 37:0.0035 38:-0.0161 39:-0.0394 
-0 0 0 0 0 0 0.02277691429202355 0 0 0 0 0.6698179070261291 0 0 0 0 0 0.1234313576206097 0 0 0 0 1:2.5956 2:3.6745 3:-1.6151 4:-1.5376 5:-3.3436 6:1.7237 7:-3.2565 8:-1.3288 9:-2.7921 10:-0.8206 11:-0.0326 12:-0.375 13:81.042 14:-0.031 15:0.0106 16:0.0208 17:0.0182 18:-0.0036 19:0.0059 20:0.0218 21:0.0112 22:0.0006 23:-0.0182 24:-0.0047 25:-0.0032 26:-0.0611 27:-0.0297 28:0.0055 29:-0.0015 30:0.0191 31:0.0032 32:0.0105 33:0.0049 34:-0.0154 35:0.0019 36:-0.015 37:-0.0001 38:0.0024 39:-0.0737 
-0 0 0.01736545795159443 0.04813993986390857 0 0 0 0 0 0 0 1 0.3099840636486454 0 1 0 0 0 1 0 1 1 1:-1.2551 2:-1.6326 3:-1.2659 4:-2.3569 5:-0.7447 6:0.2538 7:-1.8947 8:0.9234 9:-0.3061 10:-0.0966 11:-1.6845 12:0.1992 13:80.4218 14:0.0083 15:0.0204 16:-0.0125 17:-0.0074 18:-0.0001 19:0.0099 20:0.0138 21:0.008 22:0.0003 23:0.0034 24:0.0019 25:0.0043 26:-0.0526 27:0.043 28:-0.0104 29:0.0107 30:-0.004 31:0.0016 32:0.0091 33:-0.0001 34:-0.0171 35:-0.0261 36:-0.006 37:-0.0056 38:0.0133 39:-0.0551 
-0.3913154464638177 0.3475798491254262 1 0 0.5034685535131946 0.07448461228723939 0.2771022782528528 0.7655749580389806 0.3697993859961716 0.3126521751665977 0.4932412116954343 1 0.3146758216393762 0.2544982657743226 0.2855717732456384 1 0.4755435010146906 0.3189813688033106 0.6533669887986423 0.2650780882660594 0.9391064913804533 0.01015581116892091 1:7.0718 2:3.9621 3:-0.745 4:-1.3654 5:0.8907 6:1.5109 7:-2.8654 8:-1.2305 9:-1.4484 10:-0.2085 11:-0.7182 12:0.6992 13:81.9493 14:0.0366 15:0.0288 16:0.0007 17:-0.0025 18:-0.0034 19:0.0008 20:-0.0118 21:-0.012 22:-0.013 23:0.0037 24:0.0105 25:0.0013 26:-0.0242 27:-0.0315 28:-0.0007 29:-0.0087 30:-0.0041 31:-0.0004 32:0.0036 33:0.0111 34:0.0004 35:-0.0042 36:-0.0063 37:-0.0001 38:-0.0012 39:-0.0586 
-0 1 0.3130316663992559 0.07805466614148553 0 0 0 0.1532812815304719 1 0 0 1 0.6261361965788222 0 1 0 0 1 0 0 1 1 1:-6.4548 2:-3.6399 3:-2.1883 4:0.4756 5:-2.3388 6:-0.7881 7:-1.0951 8:-0.5627 9:1.3962 10:-0.8823 11:-0.6262 12:0.1439 13:83.3311 14:0.0042 15:-0.0185 16:-0.0264 17:-0.017 18:0.0103 19:0.0134 20:-0.0258 21:0.0044 22:-0.0035 23:-0.0042 24:-0.003 25:-0.0107 26:0.0013 27:-0.0177 28:0.0152 29:-0.011 30:0.0005 31:-0.004 32:-0.0061 33:0.0198 34:0.0122 35:-0.0031 36:-0.0077 37:0.011 38:0.0127 39:-0.0406 
-0.8357021159491936 0 1 0.07267070702296927 0 0 0.09404260233859142 0 0 0.2072011067306631 1 0 0.2361637464663523 0 0 0 0.1515815459032079 0.5781302312191088 0 0.4058802945542818 0.7718027375929354 0 1:0.1873 2:2.0437 3:-0.3598 4:1.4608 5:-2.6607 6:1.6788 7:-0.4077 8:-0.3146 9:0.721 10:1.2471 11:0.7511 12:-0.1863 13:86.569 14:-0.0033 15:0.006 16:-0.0083 17:-0.0052 18:0.0078 19:0.0025 20:-0.0009 21:0.0062 22:0.0074 23:0.0006 24:-0.003 25:-0.0039 26:-0.047 27:0.0286 28:-0.0279 29:0.0129 30:-0.0052 31:0.0148 32:-0.0167 33:-0.0058 34:-0.0038 35:-0.0136 36:-0.0136 37:-0.0119 38:0.0059 39:-0.0515 
-0.08412580374640936 0.8430243818170993 0.6653565207837733 0.2160929385043895 0.5459366151795924 0.6705657433468375 1 0.7681312989508563 1 0.5669596285565319 0 1 1 0.2029782843220514 1 1 0.5145481901650413 1 1 0.1935274239841442 0.6477184936752535 0.848457122406355 1:-7.2637 2:-2.8947 3:-4.358 4:-3.4608 5:-2.6494 6:-1.6526 7:-0.3702 8:-0.9532 9:-0.0379 10:-1.7672 11:-0.4167 12:-2.0883 13:78.5393 14:-0.0026 15:0.0061 16:-0.0012 17:-0.0223 18:-0.0092 19:0.0013 20:0.0066 21:0.0085 22:-0.0152 23:-0.0095 24:0.0049 25:-0.006 26:-0.0091 27:-0.0278 28:-0.0242 29:0.036 30:0.0282 31:0.0023 32:0.0102 33:0.0092 34:0.0189 35:-0.0019 36:-0.0007 37:0.0118 38:0.0237 39:-0.0504 
-0 0 0.8729170640951754 0 0.1916790715458531 0 0.1556720645956723 0.138125753171982 0.0379792359793768 0 0 0 0.02617149077815953 0.1299444797607203 0 1 0.5122787970276486 0 0.07890611764482598 0 0 0 1:1.4497 2:1.4714 3:-3.7586 4:1.6057 5:-2.0422 6:0.9331 7:-3.1593 8:-3.2753 9:-1.2093 10:-0.7313 11:0.5944 12:0.2864 13:81.7886 14:-0.0422 15:-0.0122 16:-0.0227 17:0.0031 18:0.0078 19:0.0116 20:0.0086 21:-0.0126 22:-0.0033 23:0.0062 24:-0.0079 25:-0.0084 26:-0.0525 27:-0.0231 28:-0.0088 29:0.0235 30:0.0152 31:0.0148 32:-0.0058 33:0.0086 34:0.0022 35:-0.0091 36:-0.0108 37:-0.0201 38:-0.0048 39:-0.0578 
-1 0 1 1 0 0 0 1 1 1 1 0.3893618370893542 1 0 0.6974227270429031 0 0 1 1 1 1 0.3631643244138815 1:-2.9858 2:1.1346 3:-0.819 4:0.7281 5:-1.0396 6:1.6507 7:-0.4703 8:0.3645 9:1.2924 10:0.9106 11:0.716 12:-0.5831 13:86.4015 14:-0.0349 15:-0.042 16:-0.0256 17:-0.0161 18:-0.0114 19:-0.0188 20:-0.0226 21:-0.0011 22:0.0082 23:-0.0062 24:-0.0049 25:-0.0045 26:-0.0003 27:-0.0249 28:-0.0536 29:-0.0082 30:0.0022 31:0.0083 32:-0.0097 33:-0.0059 34:0.0171 35:0.0016 36:-0.0186 37:-0.0073 38:0.0001 39:-0.0657 
-1 0.02752937437272576 1 0.9750432697682224 0 0 0 0 0.06832483085880758 0 0.004074555840832668 0.8399891019629938 1 0 1 1 0.2995139804356393 0.7949928068524581 0.31387479194641 0.7566088929124971 0.858978906875994 0.2670882031124907 1:2.9249 2:-1.7542 3:-0.3339 4:-2.2297 5:-0.211 6:0.5956 7:-2.7159 8:1.1521 9:-1.0582 10:-0.9079 11:-1.827 12:0.4295 13:81.8927 14:-0.0131 15:0.0228 16:0.0083 17:-0.0184 18:-0.0319 19:0.0049 20:0.001 21:-0.0296 22:-0.0202 23:-0.0059 24:0.0202 25:-0.003 26:-0.0327 27:-0.0328 28:0.01 29:0.002 30:0.0289 31:-0.0024 32:0.004 33:0.0074 34:-0.0012 35:0.0192 36:0.0183 37:0.002 38:-0.0123 39:-0.0598 
-0.2334002203179281 0 1 0 0.3682560080198175 0 0 0.3233989745026035 0.01588603366203704 0.4564354062106974 0.07236546395975216 1 0.5156333857201134 0.1250886678319087 0 0.3444386835237344 0.2114248368988922 1 0.7938183137218064 0 0 0 1:-2.9744 2:5.4489 3:-2.0171 4:-1.186 5:-0.0097 6:0.0899 7:-1.8352 8:-0.9308 9:-0.398 10:-0.5384 11:-0.5403 12:-0.0943 13:79.7101 14:-0.0009 15:0.0167 16:0.0041 17:-0.0034 18:-0.012 19:-0.0012 20:0.0144 21:0.0025 22:0.0032 23:0.0017 24:0.003 25:0.0047 26:-0.0231 27:0.0038 28:-0.0079 29:-0.0243 30:-0.0097 31:-0 32:0.0324 33:0.0031 34:-0.0042 35:0.0042 36:0.0159 37:0.0123 38:0.0032 39:-0.0444 
-0 0.9635941679125005 0 0.2418437300657983 0.3718574119670995 0.5789931257905917 0 0 0.2596444442376183 0.02755946396728506 0.2923539841023516 0.2698727438601767 0 0.002921318530652613 0.6462729838325101 0.2471283898365887 1 0 1 0 0 0 1:-5.1353 2:-4.1077 3:1.4613 4:1.9546 5:-3.8215 6:2.8216 7:-1.8622 8:0.9879 9:2.1958 10:-1.0722 11:0.3507 12:-0.0714 13:85.0566 14:0.0081 15:0.0094 16:-0.0034 17:-0.0165 18:-0.0008 19:0.0081 20:0.0214 21:0.0089 22:-0.0031 23:-0.0118 24:-0.0086 25:-0.0088 26:-0.0083 27:-0.0622 28:0.0348 29:0.0136 30:0.02 31:-0.0084 32:-0.0647 33:0.0139 34:0.0096 35:-0.0066 36:-0.0186 37:0.0035 38:0.0073 39:-0.0445 
-1 1 1 1 0.6244374841020249 0.7906012788800172 1 1 1 1 1 1 1 1 1 1 0.5128352807305498 1 1 1 0.4201654476566066 0.825973854403443 1:-7.4629 2:4.1495 3:2.229 4:0.7761 5:0.3375 6:0.4399 7:-1.5415 8:-1.4244 9:-1.359 10:-0.6723 11:-0.6997 12:0.0282 13:81.7228 14:0.0202 15:0.0353 16:-0.0038 17:-0 18:-0.0183 19:0.005 20:-0.0165 21:-0.0234 22:0.0033 23:-0.0007 24:-0.0077 25:-0.0121 26:-0.031 27:0.0005 28:-0.0233 29:0.0045 30:-0.0386 31:-0.0081 32:0.0017 33:-0.0008 34:-0.0103 35:-0.0129 36:0.0038 37:-0.004 38:-0.0092 39:-0.0733 
-0 1 0.2694264531921787 0 0.09845190463315984 1 1 0.6803927821860548 1 1 0 1 0 0.02153952356734358 0.7343334319385393 0.5857166323732024 0.09319476469926563 0.5618851444339569 0.4649041659391672 0.180919554149116 0.1040383443295083 1 1:-8.6184 2:-3.3146 3:-0.2446 4:0.8956 5:-1.4829 6:0.0097 7:-2.7852 8:-1.3064 9:-0.1569 10:-2.0246 11:1.8752 12:-0.0395 13:80.9827 14:-0.0148 15:0.0123 16:-0.0036 17:-0.0114 18:0.016 19:0.0013 20:-0.0067 21:-0.0012 22:-0.0052 23:-0.0005 24:0.0098 25:-0.0044 26:-0.0392 27:-0.0414 28:-0.0245 29:-0.0215 30:-0.0125 31:0.0057 32:0.012 33:0.0124 34:0.0116 35:0.0103 36:0.009 37:0.0012 38:-0.005 39:-0.0301 
-0.1723714008826761 0.09109923215336395 1 1 0.1188111850140365 0 0 0 0 0 0.875538365521015 0.8938875960724441 0.1713564501339819 0 0.831224636190144 1 0.2725650077993584 0 0 0.1703769051338319 1 0.5126989160170229 1:1.4765 2:-1.3004 3:0.6225 4:-2.7496 5:-1.0601 6:0.2634 7:-2.2839 8:-1.089 9:-3.181 10:-0.0678 11:-1.1537 12:0.3827 13:81.9049 14:0.0085 15:0.0078 16:0.0223 17:0.0201 18:-0.0054 19:-0.0199 20:0.0033 21:-0.0025 22:-0.0068 23:0.011 24:0.007 25:0.0025 26:-0.0082 27:-0.0296 28:-0.014 29:-0.0094 30:0.02 31:0.0085 32:-0.0084 33:0.0008 34:-0.0127 35:-0.0053 36:0.0033 37:0.0096 38:-0.0082 39:-0.0463 
-1 0.7472961010349706 1 1 0 0 0 0 0 0 0.2748463666282817 0.4705136959030475 1 0 0.261008931972094 0.6120299624985696 0.5523878677603598 0.8883947728880918 0 0 1 0 1:-1.1677 2:0.2435 3:-1.4223 4:-0.0384 5:-2.8771 6:0.229 7:-1.1305 8:-1.6906 9:0.15 10:0.5094 11:-0.5362 12:-0.609 13:84.8564 14:0.0339 15:0.02 16:-0.0101 17:0.0185 18:0.013 19:-0.0027 20:-0.0134 21:-0.0092 22:0.011 23:0.0157 24:-0.0116 25:-0.0134 26:-0.0163 27:0.0031 28:-0.0216 29:-0.0281 30:-0.0225 31:0.0069 32:-0.0137 33:0.0077 34:0.0053 35:0.0104 36:-0.003 37:0.0008 38:0.0184 39:-0.0394 
-0.8993050655339128 1 0.0598935870475774 1 0 0 0 1 1 0.7007207583448721 0.1467795414638497 1 1 0 1 0.1374299810961591 1 1 0.55921373447236 0.05089862923130806 1 1 1:-6.4412 2:-4.0732 3:-1.6699 4:-1.0225 5:-2.4248 6:-0.3933 7:-0.9699 8:-1.6071 9:0.5364 10:-0.6971 11:0.6276 12:0.5025 13:84.113 14:0.0013 15:0.0272 16:0.0289 17:0.0148 18:-0.0367 19:-0.0095 20:0.0104 21:-0.0112 22:-0.0053 23:0.0047 24:0.0099 25:0.0005 26:-0.0479 27:-0.0247 28:0.0231 29:-0.0072 30:0.0098 31:-0.0096 32:-0.0032 33:-0.011 34:-0.0231 35:0.0085 36:0.0033 37:-0.013 38:-0.0061 39:-0.0395 
-0 0.3530350343590554 0.278461220771723 0 0 0 0 0.8326993771655837 1 0 0.4317719529895302 0.2215033831191784 1 0 0.07011209706098032 0.4379703870729478 0 1 0 0 0 0.01952527022857892 1:-9.4953 2:-2.9949 3:-3.2646 4:-1.9025 5:-2.8371 6:-1.6871 7:-2.19 8:-1.4513 9:-1.8236 10:-1.1672 11:-1.13 12:-1.2651 13:83.8203 14:-0.0645 15:-0.0189 16:-0.0627 17:-0.011 18:-0.0115 19:-0.0075 20:-0.0033 21:0.0126 22:0.0057 23:-0.0107 24:-0.0176 25:-0.0035 26:-0.0152 27:-0.0699 28:-0.0092 29:-0.029 30:-0.0009 31:0.0216 32:0.0105 33:0.0044 34:-0.0068 35:-0.019 36:-0.0113 37:-0.0098 38:-0.0028 39:-0.0926 
-0.9408087458293446 0.1285579647452131 1 1 0.158059466904958 0 0 0 1 0 0.2228307218861396 0.007523593581114998 1 0 0.4463438384110359 1 0.04642994868068336 0 0.8975989023495998 0 1 1 1:-2.3722 2:-3.7064 3:-3.9087 4:-0.0175 5:-0.1123 6:0.4846 7:-2.3144 8:0.0532 9:-1.028 10:-2.0894 11:0.1792 12:-1.1713 13:83.2835 14:-0.0318 15:-0.0452 16:-0.0259 17:-0.0227 18:-0.0007 19:0.0099 20:0.0105 21:0.0114 22:0.0126 23:0.0073 24:0.0053 25:-0.0004 26:-0.0173 27:-0.0356 28:0.0041 29:0.0103 30:0.0072 31:-0.0206 32:-0.021 33:-0.013 34:-0.0198 35:0.012 36:0.0065 37:0.0009 38:-0.0041 39:-0.0528 
-0 0.5098697597427739 0 0.410828995207665 0.3709814847643023 0 0 0.1054216377159687 0.3092761365173424 0 0 0.6359306591532994 0 0.1522800879969977 0.4322906944509931 1 0.2917481874995274 0.304784179706911 0.4039311605537019 0.05320820285829499 0.7839286207213154 0.454774848284536 1:-1.9111 2:-2.5197 3:-1.5893 4:-5.1399 5:-2.8176 6:-0.806 7:-3.0472 8:-1.493 9:-3.646 10:-0.8083 11:-1.9469 12:-0.1816 13:83.16 14:0.0109 15:0.0226 16:0.0163 17:0.0083 18:-0.0273 19:0.0002 20:-0.0078 21:0.0019 22:0.0022 23:0.0016 24:-0.0028 25:0.0024 26:-0.0469 27:-0.0367 28:-0.0419 29:-0.0074 30:0.0034 31:0.0034 32:-0.006 33:-0.0066 34:0.0079 35:0.0072 36:0.0084 37:-0.0031 38:0.0007 39:-0.0471 
-0.8098539328237158 0.5844095056584113 0 0.2307406345470571 0.6332416339651048 0.3378718678747855 0.515322503199163 1 1 0.9394232617551125 1 0.6446839370206793 1 0.4078513855398427 0.4350569140177825 1 0.749686448612749 1 0.2452389420061502 0.8402979029727216 0.5749401957070824 1 1:-11.8121 2:-3.7384 3:-4.3932 4:-2.2057 5:-2.4338 6:0.8541 7:-0.3734 8:0.0943 9:0.5048 10:0.202 11:0.239 12:-1.1244 13:85.9005 14:-0.0078 15:0.0026 16:0.0281 17:0.0061 18:0.0108 19:-0.0244 20:0.0188 21:0.0142 22:-0.0125 23:-0.0019 24:-0.001 25:0.0026 26:-0.0237 27:0.0304 28:-0.0019 29:0.016 30:-0.0028 31:-0.0058 32:-0.007 33:-0.0108 34:0.0037 35:0.0065 36:0.0016 37:0.0193 38:0.0013 39:-0.0399 
-0 0 0 0.2715337410311714 0 1 1 0 1 0.2145682788713373 0 1 0 0 1 0.906302253350955 0 0 0 0 1 0 1:-5.0569 2:-3.8985 3:-1.115 4:-0.8136 5:-2.7023 6:-0.997 7:-1.4925 8:-1.8377 9:0.3535 10:-0.7554 11:-0.0498 12:-0.5609 13:75.1913 14:0.0073 15:-0.0079 16:0.0329 17:0.0109 18:0.0108 19:0.0022 20:0.0095 21:0.0037 22:-0.0008 23:0.0031 24:0.012 25:0.0071 26:-0.0793 27:0.0111 28:0.0162 29:0.0052 30:0.0135 31:0.0001 32:0.0114 33:-0.0075 34:-0.0005 35:-0.0085 36:0.0029 37:0.0061 38:0.0057 39:-0.054 
-1 0.5783020412111473 0.818691707663434 1 1 0.916312297457937 0.2965430512700762 0.4142818971662922 0.5939563022790646 0.3600402374186151 0.1462464394659039 1 1 0.1976503473580994 1 1 1 0.3993846665573713 0.8907580665504536 0.1656475440547731 0.4771831452099974 0.896941451983294 1:6.0311 2:-3.1881 3:-0.3135 4:-2.1751 5:-2.0707 6:0.7964 7:-3.1853 8:0.8536 9:-2.1681 10:0.8679 11:-1.4549 12:0.0548 13:79.8991 14:-0.0284 15:0.0058 16:0.0371 17:-0.0023 18:-0.0079 19:-0.0135 20:-0.0039 21:-0.0047 22:-0.0142 23:-0.0132 24:-0.0173 25:-0.0149 26:-0.0348 27:-0.0548 28:0.0041 29:-0.0077 30:-0.0174 31:0.0027 32:-0.0112 33:-0.0046 34:-0.005 35:0.0043 36:-0.0127 37:-0.0045 38:-0.0077 39:-0.043 
-1 0.7628251168554249 0 1 0 0 0 0.8135261582597189 0.6481416667476009 0.915739236512487 1 0 1 0 0.5939427862108814 0.4267665152665459 1 0.9855044309845096 0 0.406058737971184 1 1 1:-3.3437 2:-2.7045 3:-0.9449 4:-2.3808 5:-3.2489 6:1.5048 7:-2.696 8:-0.7376 9:-0.4666 10:-0.9366 11:-0.8127 12:-1.1934 13:86.7618 14:-0.0291 15:0.0306 16:0.01 17:0.0153 18:0.0016 19:-0.016 20:0.0143 21:0.0127 22:-0.0151 23:0.0043 24:-0.014 25:-0.0049 26:0.012 27:-0.0324 28:0.002 29:-0.0206 30:-0.0034 31:0.0146 32:0.0167 33:0.0134 34:-0.0077 35:0.0018 36:0.0123 37:0.0142 38:0.0053 39:-0.0267 
-1 0.9001400827410712 1 1 0.4549729367383979 0.004193058089687841 0.2448480020404587 0 0.0934752377044364 0.3664698142853397 0.9164211945949454 0.9743798433627359 1 0 1 1 1 0.8289940414364464 0.3586105774657271 0.8460208755762104 1 0.7053949554104033 1:1.4019 2:-0.6646 3:-1.3264 4:0.1667 5:-1.6462 6:-0.6012 7:-3.4515 8:-0.5932 9:1.5664 10:-1.5336 11:0.9936 12:0.7803 13:85.7162 14:0.0085 15:-0.0295 16:-0.0166 17:0.008 18:0.0198 19:0.0139 20:0.0106 21:0.0104 22:-0.0051 23:-0.0025 24:-0.0034 25:0.0083 26:-0.0148 27:-0.0305 28:0.0476 29:0.012 30:0.0112 31:-0.0184 32:-0.0123 33:-0.0009 34:-0.0074 35:0.0021 36:0.0155 37:-0.0102 38:0.0038 39:-0.0654 
-0 0 0 0 0 1 0.06540780375507758 0 0 0.07414153844279742 0 1 0 0 1 0 0 0 0.0621908303069336 0 0.1584996738685356 0 1:-0.9795 2:2.6026 3:1.3315 4:-0.4939 5:-2.1395 6:-1.6926 7:-2.1418 8:-1.1621 9:0.9106 10:-0.295 11:-1.1848 12:-1.23 13:74.9366 14:0.0041 15:-0.0023 16:0.0143 17:0.0053 18:-0.0092 19:-0.012 20:-0.017 21:-0.0019 22:0.0014 23:-0.0001 24:-0.0215 25:-0.0144 26:0.1014 27:-0.0504 28:-0.0272 29:-0.0294 30:-0.0036 31:0.0088 32:-0.0005 33:0.0072 34:-0.0101 35:-0.0043 36:0.0034 37:0.0205 38:0.0119 39:-0.086 
-1 0.5368093638708026 1 1 0.04391045826791021 0.06637056162119999 0 1 0.5548247514392644 1 1 0.974698338651411 1 0.2538346211891236 1 0.7520819170049426 0 1 0.4720033543172 1 1 0.6081920155159417 1:-1.7042 2:1.8358 3:1.1772 4:1.8495 5:-1.1234 6:-1.126 7:-0.4038 8:0.3885 9:-0.0429 10:1.2185 11:1.1477 12:-0.0523 13:87.6369 14:0.0036 15:-0.0085 16:-0.0317 17:-0.0122 18:0.0069 19:0.0133 20:0.0012 21:-0.0022 22:0.0019 23:-0.0021 24:-0.0011 25:-0.0123 26:-0.0426 27:-0.0418 28:0.0036 29:0.004 30:-0.0015 31:-0.0101 32:0.0011 33:-0.0126 34:0.0037 35:0.0053 36:-0.0104 37:0.0008 38:0.0031 39:-0.0703 
-0 0 1 0.1973554950448355 0.02224094714805391 0.02319463504299804 0 0.1868398316341855 0.4953915404524993 0 0.3343210044474935 0 0.1386252478149984 0 0.04298235372527665 1 0 0 0.1262695498512186 0.01788143735007028 0 0 1:0.7177 2:2.579 3:2.032 4:2.2786 5:1.2742 6:0.4607 7:-1.5067 8:-0.8421 9:-1.9986 10:-1.19 11:-1.5439 12:0.2158 13:80.3283 14:0.0566 15:0.0248 16:-0.0126 17:-0.0096 18:0.0108 19:-0.0044 20:0.002 21:0.0009 22:-0.0026 23:0.0006 24:0.0001 25:-0.001 26:-0.0243 27:-0.0222 28:-0.0009 29:-0.0118 30:-0.0285 31:-0.0031 32:-0.0106 33:-0.0008 34:-0.022 35:-0.0006 36:0.0135 37:0.0021 38:-0.0084 39:-0.0342 
-0 0 0 0 0 0 0 0 0.1199300253522902 0 0 0 0 0 0 0 0 0 0.3751125226411235 0 0 0 1:-3.8433 2:-0.956 3:-0.809 4:1.1196 5:-4.252 6:0.3687 7:-0.931 8:-1.2247 9:0.4781 10:-1.2845 11:-0.0371 12:-0.53 13:80.5079 14:0.0266 15:0.0403 16:0.041 17:0.0132 18:0.0098 19:0.0102 20:0.0287 21:-0.0001 22:0.0049 23:0.0067 24:0.0088 25:-0.002 26:0.002 27:0.0343 28:-0.0443 29:0.0008 30:-0.0182 31:0.0015 32:0.0098 33:-0.0044 34:0.0143 35:0.0126 36:0.002 37:-0.0063 38:0.0074 39:-0.0186 
-1 1 0.9788990998457349 1 0 0 0 1 1 1 0.4714156342516802 1 1 0 1 0.4192549588844527 0.2860401083506687 1 1 1 1 1 1:-4.578 2:-2.1846 3:-1.4391 4:2.1246 5:-2.1904 6:0.212 7:0.4518 8:0.4097 9:1.1573 10:0.2424 11:0.2126 12:-0.4911 13:86.2574 14:0.0004 15:0.0157 16:0.0116 17:0.0077 18:-0.0225 19:-0.0241 20:-0.0058 21:0.0091 22:0.0004 23:0.005 24:0.0093 25:0.0094 26:-0.0234 27:-0.0215 28:-0.0087 29:0.0023 30:-0.0048 31:-0.0024 32:-0.0028 33:-0.0109 34:-0.0099 35:-0.0127 36:-0.0012 37:-0.0208 38:-0.0013 39:-0.0685 
-0 0 1 0 0 0 0 0 0 0.008731045817227299 0 1 0 0 0 0 0 0.2137370708652233 0 0 0 0 1:-1.5776 2:4.3553 3:-0.7717 4:1.266 5:-2.6379 6:-1.1257 7:-2.165 8:-0.3763 9:-0.2143 10:-0.6285 11:0.432 12:1.2387 13:80.717 14:0.018 15:-0.0304 16:0.0105 17:0.0151 18:-0.0112 19:0.0038 20:0.0006 21:-0.0181 22:0.0084 23:-0.0064 24:-0.0137 25:-0.0071 26:-0.0228 27:-0.0389 28:-0.0719 29:0.0116 30:-0.0031 31:-0.0084 32:0.0008 33:-0.0019 34:0.0052 35:0.0103 36:-0.0084 37:-0.0169 38:0.0011 39:-0.0466 
-0 0 1 0 0 0.6906213739795316 0.8231531624058075 0 0.1206762982996122 1 0 1 0.5008598893739337 0 0 0 0 0.09362498218424468 1 0 0 0 1:-5.1085 2:1.5266 3:-0.3169 4:-0.2919 5:-1.5968 6:0.1263 7:-2.8211 8:0.102 9:-0.1377 10:-0.0507 11:-0.6384 12:-0.1895 13:78.3257 14:-0.0579 15:-0.0067 16:0.0016 17:-0.0084 18:0.0033 19:0.0104 20:0.009 21:0.0023 22:-0.0139 23:-0.0105 24:-0.0028 25:0.0131 26:-0.1144 27:-0.0912 28:-0.0174 29:-0.0362 30:-0.0067 31:0.013 32:0.0028 33:0.0122 34:0.0018 35:-0.0031 36:0.0015 37:0.0083 38:-0.0049 39:-0.1415 
-1 1 1 1 0 0.8146772215843178 0.3379349153121098 1 1 1 1 1 1 1 1 1 0.2746842695938085 1 1 1 1 1 1:-4.47 2:-2.253 3:-0.7688 4:-1.349 5:0.5362 6:1.5317 7:0.1562 8:0.3167 9:1.4975 10:1.3693 11:-0.2732 12:0.3958 13:84.2262 14:-0.014 15:-0.0073 16:0.0052 17:0.0041 18:-0.0123 19:-0.0014 20:0.0035 21:0.0157 22:0.0052 23:-0.013 24:-0.0035 25:-0.0055 26:-0.0318 27:0.002 28:-0.0031 29:0.0044 30:0.0236 31:0.0087 32:0.0041 33:0.0162 34:-0.0009 35:-0.008 36:0.002 37:-0.007 38:-0.0073 39:-0.0556 
-0.07896296250840905 0.4983124197067363 0.4798427987054247 0 0 1 1 0.9153810045648059 1 0.1940239996498107 0 1 0.5644385505750604 0.255910068972505 1 0.7447490158372767 0.5509321454511263 0.3844761713870041 0.5960888151281106 0.1285496590025556 0 0.8557380690765739 1:-7.1308 2:-5.1455 3:-0.4103 4:-1.8276 5:-2.3497 6:0.0447 7:-0.5725 8:-0.5452 9:0.7921 10:-0.7764 11:0.04 12:0.2549 13:73.7109 14:-0.0485 15:0.0805 16:0.0023 17:-0.0171 18:0.0145 19:-0.0012 20:-0.0101 21:0.0015 22:0.0017 23:0.0044 24:-0.0039 25:-0.0154 26:-0.0425 27:-0.1319 28:0.0356 29:0.0328 30:-0.0205 31:0.03 32:-0.0027 33:0.0345 34:0.03 35:-0.0138 36:-0.0153 37:0.0106 38:0.007 39:-0.0588 
-0 0 0 0 0.06737832331132587 0 0.1895220975145064 0.1385023689641271 0 0.09157170603268847 0 0 0 0.1441903982453319 0.09716649262947132 0 0.3176455305370138 0 0.03472316622942909 0.0140414382986792 0 0 1:1.7345 2:-1.9697 3:-3.8277 4:-4.4577 5:-3.3487 6:3.6275 7:-3.7745 8:-0.3074 9:-2.4211 10:-1.4913 11:-0.755 12:-1.3952 13:79.3287 14:-0.0384 15:-0.0645 16:-0.003 17:-0.0126 18:-0.0149 19:-0.0052 20:-0.0042 21:0.0101 22:-0.0018 23:0.0047 24:-0.0065 25:-0.0137 26:-0.0257 27:0.041 28:0.0046 29:0.0092 30:0.0139 31:0.0289 32:0.0061 33:0.0143 34:0.0017 35:0.0113 36:0.02 37:0.0122 38:0.0033 39:-0.079 
-0.6533153344009062 0.6194183737376449 0.6013478379511502 0.5050511185358549 1 0.9168569859354894 0.492010543266867 0.6927527472621884 0.5730040348773242 0.564897916362564 0.3641690111963201 1 0.7775558529879358 0.3625397212395049 1 1 1 0.4857815684018473 0.7926530297095012 0.3759837153217306 0.192171189037935 0.5989342869171926 1:5.1264 2:-2.9541 3:-4.4916 4:-5.4998 5:-2.5974 6:1.9801 7:-4.2566 8:-1.1651 9:-1.1304 10:-1.6337 11:-0.7556 12:-0.2624 13:75.1223 14:-0.0162 15:0.0044 16:0.0019 17:-0.0073 18:-0.0056 19:-0.0129 20:-0.0155 21:0.0026 22:-0.0003 23:0.0085 24:0.0054 25:-0.0047 26:-0.0534 27:-0.0016 28:-0.0061 29:-0.0084 30:-0.0213 31:-0.0033 32:-0.0021 33:0.0107 34:0.0052 35:0.0075 36:-0.0014 37:-0.0038 38:0.0028 39:-0.0391 
-1 1 0.5152846646316904 1 0.1796748918664934 0.8350246785232375 0.3279353299526781 1 1 1 1 1 1 1 0.2297264480531445 0.03931494132619529 0 1 1 1 1 1 1:-11.2114 2:-2.3276 3:-2.6615 4:-0.5046 5:-2.0364 6:-1.2455 7:-1.1457 8:-0.1133 9:-0.0113 10:-0.251 11:0.0622 12:-0.6619 13:85.8683 14:0.0129 15:0.0239 16:0.0207 17:0.0007 18:-0.0025 19:-0.0221 20:-0.0053 21:-0.0137 22:0.0011 23:-0.0005 24:-0.0026 25:-0.0014 26:-0.0064 27:0.0252 28:-0.0187 29:0.0162 30:0.0116 31:0.016 32:0.0166 33:0.0057 34:0.003 35:-0.0143 36:-0.0139 37:-0.0144 38:-0.0039 39:-0.0945 
-0 0.6632718748888838 0 1 0 0.9668331040852555 0 0 0 0 0 1 0 0 1 1 0 0 0.1167205205353682 0 1 1 1:-0.1294 2:-0.4726 3:1.8444 4:-1.9292 5:-0.6121 6:-0.2348 7:-2.5178 8:-0.727 9:-1.0594 10:-0.34 11:-0.0743 12:0.8014 13:80.9732 14:0.0133 15:0.042 16:0.0431 17:0.0274 18:-0.0111 19:-0.0185 20:-0.0063 21:-0.0224 22:-0.0058 23:0.0027 24:0.0078 25:-0.0098 26:-0.0223 27:-0.0231 28:0.0193 29:-0.026 30:-0.0204 31:-0.0019 32:-0.0108 33:0.0011 34:-0.0014 35:0.0063 36:0.0023 37:-0.0055 38:-0.0119 39:-0.0316 
-0.2848677316961749 0.9366237723783377 0.6517629518977495 0.2791394571177575 0.9303682406050187 0.8490736670499163 0.460231507489505 0.6069108318212708 0.6072798008186666 0.7327266391328061 0.3439925804426375 0.9307276271142945 0.5220282597830015 0.3450343818047367 0.7360027916066191 1 0.8431650456175974 0.3710101213375475 1 0.2718161303667281 0.105831711796763 0.3707573529066209 1:-4.8165 2:0.3201 3:7.2121 4:5.191 5:-2.8476 6:-3.1551 7:0.1114 8:-1.4588 9:0.3321 10:1.1805 11:-0.2 12:-0.8457 13:81.9977 14:0.0113 15:-0.0179 16:-0.0283 17:-0.0239 18:0.0027 19:0.0053 20:0.0001 21:0.0199 22:0.0187 23:0.0063 24:0.006 25:-0.0041 26:-0.0139 27:0.0032 28:-0.0092 29:-0.036 30:-0.0083 31:0.0086 32:0.0256 33:0.0058 34:-0.0041 35:-0.0016 36:-0.0117 37:-0.0086 38:0.0075 39:-0.0661 
-0.3369601378537184 0.3374550413852372 1 1 0 1 0.5805065393517358 0 0 1 0.3495208909670143 1 1 0 1 1 0 0 1 0 1 0.8131341368648477 1:-2.5107 2:1.4641 3:2.2036 4:-0.7064 5:0.2504 6:-0.4366 7:-1.183 8:0.914 9:-0.1347 10:-0.6223 11:-0.6513 12:-0.3958 13:79.6502 14:0.0154 15:0.015 16:0.0297 17:-0.004 18:-0.0026 19:0.0173 20:0.0122 21:0.0224 22:0.0114 23:-0.014 24:-0.0109 25:-0.0106 26:-0.0051 27:-0.0119 28:0.0051 29:-0.0586 30:-0.0105 31:-0.0206 32:-0.0017 33:-0.0115 34:-0.0229 35:-0.0215 36:0.0056 37:0.0043 38:0.0011 39:-0.041 
-0.1673585040473119 0.1842877719245776 0 0.007434887407877546 0.4212794949978164 1 0.2841205896394373 0.2961228996046577 0.1131840543669698 0.4395694769589306 0.2563874031394507 1 0 0.1953343980312032 0.3799773180138848 0.811001470572589 0.431119273102702 0.1909396423645414 0.6879277164853769 0.2273902067352193 0 0 1:0.7991 2:4.3624 3:2.7914 4:1.1689 5:-2.704 6:0.7926 7:-1.19 8:0.3632 9:2.2204 10:-0.8606 11:-0.4909 12:-1.0894 13:76.502 14:0.0158 15:-0.0133 16:-0.0222 17:-0.0042 18:0.0265 19:-0.0047 20:0.0022 21:0.0038 22:-0.0018 23:-0.0071 24:-0.014 25:0.0081 26:-0.0043 27:-0.0163 28:-0.007 29:-0.0172 30:0.0223 31:0.0012 32:-0.0075 33:0.0153 34:-0.0069 35:-0.0005 36:-0.0013 37:-0.003 38:0.0044 39:-0.0402 
-1 0.07132814054526532 0.5821103266397608 1 0.568410952339748 0.3727430605635245 0.2744601252235969 1 0.5118330605772395 1 1 0 0.9652848896354704 0.626729541144455 1 0.6842840640337239 0.8394853201398251 1 0.7322927656861773 1 0.3630268309549126 1 1:-2.2037 2:-0.6061 3:-0.5317 4:2.3587 5:-1.2584 6:1.635 7:0.1607 8:0.7558 9:1.1414 10:0.7485 11:1.0022 12:-0.4714 13:88.6404 14:0.0507 15:0.0028 16:-0.0063 17:0.0108 18:0.0196 19:0.0098 20:-0.0022 21:0.0149 22:0.0152 23:0.0031 24:0.0022 25:0.0086 26:-0.0087 27:-0.0069 28:0.0032 29:0.0129 30:-0.0013 31:0.0026 32:-0.0042 33:0.0111 34:-0.0016 35:0.0024 36:0.014 37:0.0073 38:0.0122 39:-0.0527 
-0 0 0 0.697687990639374 0.8584675991928364 1 0.4541559153227707 0.00785513086953166 0 0.1621808263702873 0.1128662623578807 0.7973003775236897 0.1386215658698024 0 1 0.1350622615510916 0.7114852475218965 0 0.224838900952143 0 0.7260001319897436 0.5506875813779091 1:-1.1381 2:-2.3422 3:1.3065 4:-0.8201 5:-3.0477 6:-0.2811 7:-1.6969 8:-1.5605 9:0.2265 10:-1.1811 11:-0.7632 12:-0.1276 13:74.4138 14:-0.0068 15:0.0309 16:0.033 17:0.0445 18:-0.0266 19:-0.0328 20:-0.0036 21:-0.006 22:0.0011 23:-0.0153 24:-0.009 25:0.0005 26:-0.0209 27:-0.0079 28:-0.0116 29:-0.0228 30:0.0011 31:0.003 32:0.0012 33:-0.0064 34:-0.0121 35:-0.0017 36:-0.0015 37:-0.008 38:0.0024 39:-0.0333 
-0 1 0.2468441707724047 1 0 1 0 0 1 0.3884507198594686 0 1 0 0 0.4373467198238467 0 0 0.08732462740004761 1 0 1 0.1570021964845394 1:-4.835 2:-1.1105 3:2.3135 4:-0.4378 5:-2.6407 6:0.34 7:-1.8798 8:-0.0097 9:-0.4106 10:0.3133 11:-1.0597 12:-1.3385 13:80.3386 14:-0.0194 15:0.0658 16:0.0218 17:0.0382 18:0.0084 19:-0.0109 20:0.0014 21:0.0034 22:-0.007 23:-0.01 24:-0.0004 25:-0.005 26:-0.0252 27:-0.0205 28:0.0422 29:0.0309 30:0.041 31:0.0103 32:-0.0114 33:0.0332 34:0.0163 35:-0.0007 36:0.0148 37:0.0195 38:0.0033 39:-0.0677 
-0.2920302144559375 0.1771790799139021 0.2616356055116496 0.07432254352010248 0.917022134704422 1 1 0.07543582567573677 0.4491958861768717 0.4134667435631137 0.262334621255356 0 0.08909579511819204 0.1651874804120044 1 0.4263954626433258 0.6306147903835773 0.36436774583121 0.5272725993226194 0.2977985878228016 0 0 1:-6.8608 2:-3.7961 3:1.3293 4:0.1183 5:-3.1368 6:-0.4544 7:-1.0415 8:-0.8073 9:0.1788 10:-0.839 11:0.0345 12:-0.375 13:70.3718 14:0.0286 15:-0.0003 16:-0.0183 17:-0.011 18:-0.0207 19:0.001 20:-0.0169 21:-0.0095 22:0.0015 23:-0.0007 24:-0.0127 25:-0.0023 26:-0.0005 27:0.0173 28:0.034 29:0.0315 30:0.0087 31:-0.003 32:0.003 33:0.0035 34:-0.0223 35:-0.0081 36:-0.0001 37:0.0088 38:0.0045 39:-0.0713 
-0.00412426701429314 1 1 1 0.3963887107379551 1 1 1 1 0.5611413650976851 0.3886911325824671 1 1 0.3233757508840435 1 1 0.08967070538666323 0.3427580241001531 1 1 1 1 1:-5.3544 2:-4.0036 3:-0.6584 4:-1.0213 5:2.0956 6:1.271 7:-1.1334 8:1.5514 9:0.6749 10:-0.419 11:-0.5459 12:0.8236 13:81.4714 14:0.0106 15:0.005 16:0.0129 17:0.018 18:0.0228 19:0.0006 20:0.001 21:0.0198 22:0.0268 23:0.007 24:-0.013 25:-0.0066 26:-0.0193 27:-0.0583 28:-0.0575 29:-0.038 30:-0.0313 31:-0.0088 32:-0.0191 33:-0.0234 34:-0.0085 35:-0.0092 36:-0.001 37:0.0066 38:-0.0047 39:-0.0179 
-1 0.9136475430840095 0 1 0.07101265927619219 0 0 1 1 1 1 0.3169518665555193 1 1 0.6929977503730566 0.2110159308690631 0.006451813408480003 1 1 1 1 1 1:-7.983 2:-3.5708 3:-3.3057 4:-0.1752 5:-1.7949 6:-0.5407 7:-0.2062 8:-0.5412 9:0.0009 10:0.229 11:0.165 12:-0.3812 13:87.8101 14:-0.0386 15:0.003 16:0.0456 17:0.0177 18:-0.0166 19:0.0077 20:0.0078 21:0.007 22:0.0073 23:0.0045 24:0.0059 25:0.0019 26:0.0251 27:0.0001 28:0.0256 29:-0.0104 30:0.0092 31:0.0309 32:0.0394 33:0.0063 34:-0.0062 35:-0.0116 36:-0.0136 37:0.002 38:-0.0021 39:-0.0668 
-1 1 0.8578424972910501 0.4911995172630613 0.6201114369682538 0.2730719444293843 0.2844093894003523 0.7546019063361172 0.6645592531169796 0.357569981337681 0.6449885309559807 0.4943177036527166 1 0.002905136775549648 0.7749984434290563 1 0.6209556776268496 1 0.4149604112639604 0.3474889870339966 0.8999963239085242 0.8493828702346655 1:-3.6758 2:-4.1326 3:-5.2427 4:-4.9234 5:-1.6056 6:-2.0281 7:-2.5183 8:-0.6307 9:-1.6639 10:-0.7875 11:-2.0902 12:-0.0167 13:85.7317 14:0.0671 15:0.0204 16:0.0052 17:0.0184 18:-0.0079 19:-0.0023 20:-0.006 21:-0.009 22:0.0069 23:-0.0088 24:0.0047 25:-0.0101 26:-0.0321 27:-0.0013 28:0.0383 29:-0.0088 30:0.036 31:0.0268 32:0.0217 33:0.0015 34:0.0155 35:0.0179 36:-0.0055 37:0.0129 38:0.0035 39:-0.0656 
-0 0 0 0.03105108541988565 0.07757231082008159 0.0522594061185474 0.004835001134549194 0.08713212156329103 0 0.1101299002147251 0 1 0 0.07801627836314216 0 0.09495168652450474 0.04593282723734061 0 0 0 0 0 1:5.6085 2:1.0221 3:0.6339 4:-3.0882 5:-1.3165 6:0.5946 7:-3.3035 8:-0.9031 9:-2.9317 10:-0.4709 11:-1.59 12:1.4019 13:76.6217 14:0.0011 15:0.0528 16:-0.0003 17:-0.0023 18:-0.0083 19:-0.0028 20:-0.0113 21:-0.0096 22:0.0033 23:-0.0153 24:-0.0022 25:-0.0119 26:-0.0522 27:-0.0351 28:-0.0092 29:-0.011 30:0.0217 31:0.0074 32:-0.0085 33:-0.0068 34:-0.0016 35:-0.0013 36:-0.0207 37:-0.0053 38:-0.0119 39:0.0105 
-0 0 0.2762151145165168 0 0 0.2641017801434225 0 0 0 0.735148493105211 0 0.5517209276105125 0.04992090686979837 0 0 0 0 0 0.8206183022223088 0 0 0 1:-2.6356 2:4.3496 3:1.8703 4:-0.1968 5:-0.2189 6:0.7819 7:-1.3305 8:-0.8053 9:-0.243 10:-0.1578 11:-0.5985 12:-0.4568 13:79.8099 14:0.0344 15:0.0611 16:0.0209 17:0.0122 18:-0.0038 19:0.0084 20:0.0001 21:-0.0136 22:0.0006 23:-0.0031 24:0.0026 25:0.0002 26:-0.0127 27:-0.0028 28:-0.0048 29:-0.0409 30:-0.0211 31:-0.0055 32:0.0057 33:0.0182 34:0.0206 35:-0.0074 36:-0.0207 37:0.0025 38:0.0097 39:-0.0487 
-0 0 0.5112620765624319 0.1626804448769766 0 0 0 0 0 0 0 0 0 0 0 0 0 0 0 0 0 0 1:-1.7862 2:-0.4685 3:-0.8182 4:2.8526 5:-2.4533 6:-0.302 7:-1.8364 8:-0.7602 9:1.0188 10:0.3254 11:0.6412 12:0.2428 13:85.9289 14:0.0333 15:0.0255 16:-0.0093 17:-0.0205 18:0.0177 19:0.0016 20:-0.0024 21:-0.012 22:-0.0008 23:0.008 24:-0.0074 25:-0.0013 26:-0.0289 27:-0.0594 28:0.0013 29:-0.0139 30:0.0086 31:-0.0071 32:-0.0163 33:-0.0103 34:0.0037 35:-0.0015 36:-0.008 37:-0.0036 38:-0.0096 39:-0.0754 
-0 0 0.08305756599194974 0 0 0 0.07064481457945287 0 0 0 0 1 0 0.03483711485865981 0 1 0.2813000806738919 0.1508014437857315 0.05898337828804738 0 0 0 1:5.0566 2:-0.9233 3:-0.7207 4:-2.3354 5:-1.0636 6:-1.3008 7:-4.5171 8:0.3068 9:-1.3622 10:0.3693 11:-2.6025 12:0.0226 13:80.2581 14:-0.014 15:0.0026 16:0.0036 17:0.0274 18:0.0111 19:0.0119 20:0.0234 21:0.0035 22:0.0026 23:-0.0138 24:-0.0005 25:0.0143 26:-0.0762 27:-0.0007 28:0.0043 29:-0.0037 30:0.0038 31:0.0011 32:-0.001 33:0.0095 34:-0.0176 35:-0.009 36:-0.0057 37:0.0048 38:-0.0126 39:-0.0448 
-1 0.8799681200874261 1 1 0 0 0 1 1 1 1 0.5170649685230653 1 0.4064089335099593 1 1 0 1 1 1 1 1 1:-2.6677 2:-1.9118 3:1.2926 4:-0.3165 5:-0.1048 6:2.0025 7:-1.5142 8:2.4993 9:-0.2487 10:-0.7106 11:-0.1834 12:0.4121 13:86.43 14:0.0498 15:0.0164 16:0.0109 17:-0.0214 18:-0.0166 19:-0.0064 20:0.0112 21:0 22:-0.0122 23:0.0123 24:0.0021 25:0.0047 26:0.0491 27:-0.0909 28:-0.025 29:-0.0185 30:-0.0005 31:0.0208 32:0.0011 33:0.0037 34:0.0003 35:0.0111 36:0.0002 37:0.0046 38:0.003 39:-0.1068 
-0.009391265255681531 0.08448147644390996 0.2120919130040937 0 0.4907863084166105 1 1 0.1801448226232134 0.4256547107927857 0.2829837054889006 0.08657086601230778 0.8626733309979701 0.3825720296017662 0 1 0.2812033687171465 0 0.2802937154415386 0.1124253163449592 0.0374161967428269 0 0 1:-5.6091 2:-3.7073 3:0.3945 4:-1.9986 5:-1.307 6:-0.453 7:-2.1039 8:-0.9917 9:0.4103 10:-0.4881 11:-0.3259 12:-0.4386 13:72.8869 14:0.0278 15:0.0077 16:-0.0045 17:0.0054 18:-0.01 19:-0.0048 20:0.0057 21:-0.0013 22:-0.0034 23:0.0095 24:0.0066 25:0.0001 26:0.0202 27:0.0037 28:0.0013 29:-0.02 30:0.0101 31:-0.0122 32:0.0202 33:-0.0214 34:0.0006 35:0.009 36:0.0066 37:0.0107 38:0.0018 39:-0.0539 
-0.5212479664859596 0.9767460369895778 0.6822557637829239 0.3051462388990939 1 0.8353200543097217 0.6842685737203316 0.9274258345700992 0.7665470631875826 0.6996222251949424 0.3767972512634642 1 0.5652447204882046 0.4615617275899407 0.8354933213539677 1 1 0.6268645762910503 0.8970311743886928 0.441516932024493 0.1378160457717376 0.443139685534891 1:-11.4751 2:-11.3016 3:-5.8029 4:-6.1465 5:-2.0176 6:-3.4744 7:-3.3908 8:-0.6907 9:-3.2563 10:-1.5614 11:-0.9979 12:0.2619 13:82.1536 14:0.0313 15:0.0176 16:-0.0028 17:-0.0066 18:0.0029 19:0.005 20:-0.0198 21:-0.0012 22:-0.0016 23:0.006 24:0.003 25:0.0021 26:-0.0316 27:0.0118 28:-0.001 29:0.0109 30:-0.0004 31:-0.0165 32:0.0026 33:-0.0113 34:-0.0085 35:0.0138 36:-0.01 37:-0.0155 38:0.006 39:-0.0374 
-0.02355287845315414 0.4338216569893329 0.1601299819766618 0.1288873813660674 0.1091592738168369 0.5328057009441282 0 0 0 0 0 1 0 0.03535659900824636 1 1 1 0 0.2763531359921964 0.02710559726151765 0.7497693051381739 0.04472095588942393 1:1.89 2:-1.657 3:0.6506 4:-1.3282 5:-5.1911 6:0.966 7:-2.401 8:-0.669 9:-0.5946 10:1.5758 11:0.9941 12:-0.6757 13:80.6816 14:0.0692 15:0.0206 16:-0.0031 17:-0.0104 18:-0.0133 19:0.0145 20:0.0043 21:-0.0046 22:-0.0063 23:0.0113 24:0.004 25:-0.0041 26:0.0744 27:-0.0235 28:0.007 29:0.0041 30:0.0005 31:0.0107 32:0.0035 33:0.0199 34:0.0042 35:-0.003 36:-0.0072 37:-0.0127 38:-0.0095 39:-0.0647 
-0.4394397287388148 1 1 1 0.06930598366511308 1 1 1 1 1 0.6448869969175715 1 1 1 1 1 0 0.9471451731763137 1 1 1 1 1:-8.3152 2:-2.1802 3:2.8537 4:2.1201 5:-2.5054 6:-0.6133 7:-1.4572 8:-0.2391 9:0.4998 10:0.5739 11:0.1818 12:-0.6193 13:82.2156 14:0.0129 15:0.0465 16:0.0522 17:0.0238 18:-0.0093 19:-0.0071 20:0.0284 21:-0.0093 22:-0.0014 23:0.0007 24:0.0153 25:0.0018 26:-0.0562 27:-0.0211 28:-0.0161 29:0.0076 30:0.0058 31:0.0297 32:0.0026 33:-0.0219 34:0.0126 35:0.0197 36:0.0088 37:-0.018 38:-0.0204 39:-0.0838 
-1 0 1 1 0.141272300538668 0 0.01683839212760112 0.7835185450910314 0.1480703251371465 1 1 1 1 0.1289233105842664 0.1090508668800233 0 0 1 0.530598271874104 0.6837144802633275 0 0 1:-2.4704 2:4.408 3:1.287 4:1.9841 5:-2.2483 6:-0.404 7:0.2575 8:0.7971 9:0.4943 10:0.0356 11:0.3364 12:-0.1405 13:85.9396 14:-0.0151 15:0.0071 16:-0.0283 17:0.0143 18:0.0069 19:-0.0116 20:-0.0002 21:-0.0053 22:0.0092 23:0.0092 24:0.0053 25:0.0039 26:-0.0049 27:-0.0118 28:-0.0105 29:0.0005 30:0.0029 31:0.0078 32:0.008 33:0.0071 34:-0.0102 35:0.0042 36:0.009 37:-0.0071 38:0.0045 39:-0.0349 
-0 0 0 0.01022533382062362 0.2623753078458215 0.3138160835167576 0.2559338700206182 0.08380198467770862 0 0 0 0.7068572992147558 0 0 0.6590585056361936 0.2564405710174323 0 0 0.08573187062730865 0 0.06763963951768429 0 1:-1.1688 2:-1.4816 3:-0.4643 4:-3.4725 5:-1.7947 6:-0.7758 7:-2.5731 8:0.1146 9:-2.5079 10:-2.3338 11:-2.889 12:-0.0309 13:78.3424 14:0.0546 15:0.0021 16:-0.0054 17:-0.009 18:-0.0252 19:0.0118 20:0.0026 21:-0.0152 22:0.0043 23:-0.0063 24:-0.0116 25:0.0098 26:0.007 27:-0.0508 28:-0.0208 29:0.0124 30:0.0122 31:0.0224 32:-0.0202 33:0.007 34:0.0113 35:-0.0067 36:0.0114 37:0.0099 38:-0.0074 39:-0.0009 
-0 0 1 1 0 0 0 0 0 0 0 0.1204773654142024 0.8147418658981648 0 1 0 0.2849274347628578 0 1 0 1 0.3640142094930675 1:0.435 2:-1.0079 3:-1.2156 4:-0.6544 5:-1.9042 6:1.1395 7:-1.1843 8:-0.564 9:-0.2706 10:-1.0129 11:0.1883 12:-0.3808 13:80.8663 14:-0.0075 15:0.0332 16:0.0201 17:0.0363 18:-0.0085 19:-0.0023 20:0.0006 21:-0.0101 22:0.0013 23:-0.0036 24:-0.0017 25:-0.0027 26:-0.0373 27:-0.0293 28:0.0092 29:-0.0377 30:-0.0432 31:0.0274 32:-0.0286 33:-0.0083 34:-0.0066 35:-0.0088 36:0.0033 37:-0.0189 38:0.0084 39:-0.079 
-1 0.3162617354218824 1 1 0 0 0 0.9007586226269366 1 1 0.09060701502444121 1 1 0 0.1205770802601307 0 0 1 1 0 0.5032648878981866 0 1:-3.6153 2:2.2884 3:-0.1517 4:1.8316 5:-2.3005 6:0.2185 7:0.5102 8:-0.0994 9:0.2847 10:0.3911 11:0.8431 12:-0.1453 13:84.0683 14:0.03 15:0.0043 16:-0.0121 17:-0.014 18:0.0092 19:0.0026 20:0.001 21:0.0094 22:0.0117 23:0.0008 24:-0.0075 25:-0.0027 26:-0.0208 27:-0.0236 28:-0.0044 29:0.0027 30:-0.0059 31:0.0092 32:-0.0039 33:-0.0049 34:-0.011 35:-0.0028 36:-0.006 37:-0.0047 38:-0.0093 39:-0.0523 
-0 0 1 1 0 0 0 0 0 0 0 0 0 0 0 0 0 0 0.3586483917454382 0 0 0 1:-2.6516 2:-1.0855 3:-0.9355 4:-2.0185 5:0.2168 6:0.9993 7:-2.3069 8:0.9465 9:-0.9997 10:-0.5511 11:-0.5984 12:0.9127 13:81.443 14:0.018 15:0.0122 16:0.0425 17:0.0299 18:-0.002 19:-0.0027 20:0.0117 21:-0.0019 22:0.0043 23:0.006 24:0.0027 25:-0.002 26:-0.0414 27:-0.0144 28:0.002 29:0.0046 30:0.0518 31:0.0132 32:0.002 33:-0.0137 34:-0.0109 35:0.0163 36:-0.0105 37:-0.0004 38:-0.0244 39:-0.0674 
-0.244827965033611 0.4163839989406797 0.3437022364512975 0.4111267460053077 0.5785306203963435 1 0.347038074868576 0.490303786182596 0.3985704317957485 0.4406985864717422 0.1720424437667328 0.8005144581496911 0.3272757362297141 0.2858307070068959 0.795681071116489 0.9989817102548886 0.5536810997718218 0.3958418707249798 0.3321011843785138 0.2656648375245399 0.1222805145298005 0.2601811003671562 1:1.7985 2:3.0262 3:2.3788 4:2.1591 5:-3.6266 6:-1.3699 7:-1.7047 8:-2.8599 9:-1.6968 10:-0.9519 11:-0.1246 12:0.1046 13:74.689 14:0.0478 15:0.0111 16:-0.0372 17:0.0005 18:0.0074 19:0.0008 20:-0.0093 21:0.0051 22:0.0071 23:0.0106 24:0.0124 25:0.004 26:-0.0286 27:-0.0206 28:-0.0198 29:-0.0324 30:-0.0051 31:0.0189 32:0.0114 33:0.003 34:0.0108 35:0.0188 36:0.0034 37:-0.0038 38:-0.0048 39:-0.0593 
-0 0 0 0 0 0.03655457201898485 0 0 0 0 0 0 0 0 0 0 0 0 0 0 0 0 1:-0.7974 2:0.7398 3:-1.4612 4:-0.3621 5:-3.6574 6:2.2821 7:-1.612 8:-2.0974 9:1.3108 10:-0.8863 11:-0.1587 12:-0.8891 13:78.1222 14:-0.0091 15:-0.0216 16:-0.0107 17:-0.0369 18:0.004 19:0.0119 20:-0.0117 21:-0.0181 22:-0.0003 23:0.0076 24:0.0078 25:0.0016 26:0.0382 27:-0.0148 28:-0.0133 29:0.0016 30:-0.0037 31:0.0255 32:0.0037 33:0.0026 34:0.0128 35:-0.0086 36:0.0071 37:0.0019 38:0.0068 39:-0.0552 
-0 0 1 0.3746878537587099 0 1 1 0 1 1 0 1 1 0 0.6080767991834598 0.5331722692835321 0 0 1 0 1 0 1:-3.2265 2:0.3004 3:-3.0303 4:-0.1928 5:-1.1905 6:1.149 7:-0.6618 8:0.4732 9:0.0034 10:-0.2997 11:0.2904 12:-0.5052 13:79.4337 14:-0.0155 15:-0.0201 16:-0.0207 17:0.0083 18:0.0085 19:0.009 20:0.0102 21:-0.0178 22:0.0081 23:-0.0014 24:-0.0075 25:0.0029 26:-0.0236 27:0.009 28:-0.0099 29:0.0175 30:-0.0111 31:0.0118 32:-0.0061 33:-0.0068 34:0.0118 35:-0.0149 36:0.0085 37:0.0036 38:-0 39:-0.0531 
-1 0 1 1 0 0 0 0.3267650179189984 0 0.3837019052571133 1 0.2987614951054752 1 0 0.1283566872121591 0.1691716257481791 0 1 0 0.246717043472491 1 0 1:-0.4792 2:2.5669 3:-0.6348 4:-0.2765 5:-0.8613 6:-0.443 7:-2.1824 8:-1.0194 9:-1.6956 10:-1.8016 11:-1.2111 12:-0.6266 13:85.3171 14:0.0165 15:0.0144 16:0.0132 17:0.002 18:0.0028 19:-0.0015 20:0.0057 21:0.0019 22:-0.0009 23:0.0041 24:0.0069 25:0.0045 26:-0.0082 27:0.0005 28:0.0055 29:-0.0076 30:-0.0042 31:0.0091 32:0.0238 33:0.0148 34:0.0047 35:-0.0077 36:0.0046 37:0.0057 38:-0.002 39:-0.0511 
-1 1 0.7794357622892156 1 0.2833558822119212 0.5528494674486097 0.05959985133593083 1 1 1 1 1 1 1 1 1 0 1 1 1 1 1 1:-7.284 2:-4.6227 3:-1.3265 4:-1.6333 5:1.9742 6:-0.1266 7:-0.7672 8:0.8199 9:-1.2683 10:-0.1369 11:-0.8171 12:0.6385 13:85.5485 14:-0.0365 15:0.0186 16:0.0168 17:0.0127 18:0.012 19:0.0078 20:0.0013 21:0.0018 22:-0.0025 23:-0.0043 24:0.0024 25:-0.0058 26:-0.0639 27:-0.0149 28:-0.019 29:-0.019 30:0.01 31:0.0037 32:-0.0009 33:-0.0011 34:-0.0034 35:-0.0094 36:-0.0042 37:0.0039 38:-0.0026 39:-0.0615 
-1 1 0 1 0 0 0 1 1 1 1 1 1 0.6153406912582883 1 0 0.1500010523962394 1 1 1 1 1 1:-6.9432 2:-4.8916 3:-1.9277 4:0.5842 5:-1.1045 6:0.093 7:-0.1245 8:0.0453 9:0.7936 10:-1.1074 11:-0.6465 12:0.1084 13:85.873 14:-0.0025 15:0.0186 16:0.0051 17:0.0044 18:0.0004 19:0.0055 20:-0.0158 21:-0.0076 22:0.0061 23:0.0044 24:0.0067 25:0.0044 26:-0.0387 27:-0.0372 28:-0.0343 29:-0.0074 30:-0.0103 31:-0.0155 32:-0.0139 33:-0.0149 34:0.0047 35:0.0201 36:0.0219 37:0.0167 38:-0.0013 39:-0.0773 
-0 0 1 0 0 0.9042124261486681 0 0 0 1 0 0.4094161338041554 0.4507078128582334 0 0 0 0 0.06555782252644576 0 0 0 0 1:-4.0306 2:4.4081 3:0.3796 4:0.1024 5:-1.7496 6:1.0149 7:-1.662 8:-1.4874 9:0.0119 10:-0.6343 11:-0.5685 12:-0.6456 13:78.2556 14:-0.0107 15:0.0059 16:0.0141 17:0.0362 18:-0.0022 19:-0.0013 20:0.0151 21:0.0136 22:0.0065 23:-0.0129 24:-0.0118 25:0.0025 26:-0.0049 27:0.0646 28:0.0586 29:-0.0162 30:-0.0066 31:0.0469 32:0.0094 33:0.0067 34:-0.0084 35:0.007 36:0.0246 37:-0.0129 38:-0.0194 39:-0.047 
-0 0 0.4791979181092737 0 0 0 0 0 0 0 0 0 0 0 0 0 0 0 0 0 0.353701443275442 0 1:-0.2415 2:3.1607 3:1.4134 4:2.7466 5:-2.1699 6:-1.1271 7:-1.993 8:-1.8733 9:-0.8072 10:-0.1749 11:-0.4937 12:-1.154 13:80.7166 14:0.0043 15:-0.0127 16:-0.0172 17:-0.0063 18:0.003 19:-0.0025 20:-0.015 21:0.0056 22:-0.0026 23:-0.0071 24:-0.0052 25:0.0051 26:-0.0243 27:-0.0056 28:-0.0099 29:-0.0235 30:0.0124 31:-0.0066 32:-0.005 33:-0.0052 34:0.0002 35:0.009 36:0.0158 37:0.0012 38:0.007 39:-0.0095 
